#ifndef _WAB_
#define _WAB_

#include<ap_fixed.h>

#define UNITS 120
#define DENSE1_UNITS 10
#define DENSE2_UNITS 1
#define INPUT_FEATURE 1
#define KERNEL_TYPE ap_fixed<22,6, AP_RND_ZERO, AP_WRAP>
#define RE_KERNEL_TYPE ap_fixed<22,6, AP_RND_ZERO, AP_WRAP>
#define BIAS_TYPE ap_fixed<22,6, AP_RND_ZERO, AP_WRAP>

KERNEL_TYPE m_kernel_i[INPUT_FEATURE][UNITS]={-0.14413716,
 0.15128540,
-0.10431816,
-0.05788391,
 0.19493213,
 0.20960118,
  -0.00475259,
 0.16052732,
-0.06195872,
-0.01568388,
 0.17014971,
 0.21215200,
  -0.05602269,
 0.20481072,
-0.10918505,
 0.24393375,
 0.23039286,
 0.17590098,
   0.15414633,
 0.13213357,
-0.07510827,
-0.07290117,
-0.00518653,
-0.09559681,
   0.19678086,
 0.04470786,
 0.19290482,
 0.10092445,
 0.21543519,
-0.08504339,
   0.20295122,
 0.03089345,
-0.07620799,
 0.10205372,
-0.06213677,
 0.10644338,
   0.09921159,
 0.22308794,
 0.13906899,
-0.01293208,
 0.22968455,
 0.21150076,
  -0.08648149,
-0.08903861,
-0.08031827,
-0.08768753,
 0.13282034,
-0.10274670,
   0.15451440,
 0.16795680,
-0.09982777,
-0.05419666,
 0.16025072,
 0.13957332,
   0.03852285,
 0.22792175,
-0.09497769,
 0.19115287,
 0.17602935,
 0.19269320,
  -0.11148602,
-0.09517703,
 0.22071686,
 0.11331680,
-0.07021289,
-0.08401774,
   0.16252053,
 0.22410227,
-0.08031444,
-0.09930175,
-0.14407103,
-0.08649950,
   0.23546278,
 0.21696864,
-0.04340790,
 0.22842900,
-0.09720040,
 0.17644830,
  -0.10900855,
 0.22196463,
-0.09242397,
-0.10090526,
-0.09021058,
-0.08960713,
   0.13895033,
 0.19549838,
-0.10127273,
-0.11998919,
 0.12130397,
 0.15032445,
   0.20928560,
 0.16505976,
 0.21120371,
 0.20817670,
 0.02366001,
 0.17809384,
   0.13279673,
 0.12386160,
-0.09315070,
 0.19423918,
-0.11257272,
-0.04072650,
   0.07027739,
 0.14147925,
 0.03044102,
 0.19867241,
 0.20147385,
-0.04812038,
  -0.10705846,
 0.15244824,
 0.10328840,
 0.18516403,
 0.03799465,
 0.08378879,
  -0.03739430,
 0.22534624,
 0.07686102,
 0.13612889,
-0.08244648,
 0.14081077};
KERNEL_TYPE m_kernel_f[INPUT_FEATURE][UNITS]={ 0.03537941,
-0.07857799,
 0.09445400,
-0.00898606,
 0.19843692,
 0.04380678,
   0.01382979,
-0.20377250,
-0.00121197,
-0.09494324,
 0.07554042,
 0.10831081,
  -0.05928419,
-0.07083156,
-0.02258910,
 0.21163979,
 0.17408927,
 0.21911313,
   0.04847481,
-0.10977891,
 0.03816610,
 0.08035288,
 0.00292686,
 0.12942912,
  -0.01259036,
 0.03725522,
 0.15536672,
-0.05633086,
-0.10307066,
 0.20572296,
   0.05167526,
-0.05844137,
 0.12079360,
-0.05275608,
 0.07176709,
-0.13453181,
  -0.17761216,
-0.09037963,
-0.00624651,
-0.09572338,
-0.11559373,
 0.07286203,
   0.09615172,
 0.19193359,
 0.10547597,
 0.20954412,
-0.14534900,
 0.18137263,
   0.06413747,
-0.05373723,
 0.02537432,
 0.09063640,
-0.10373125,
 0.16132528,
  -0.14753026,
 0.21530415,
 0.17658220,
 0.20322721,
-0.09144291,
 0.17087778,
  -0.02514200,
 0.13807632,
 0.15676805,
 0.06070818,
 0.22715518,
 0.15597892,
  -0.03136780,
 0.16295943,
-0.09775071,
 0.10026312,
-0.09042912,
 0.17747714,
   0.04955252,
 0.11020113,
 0.11235957,
 0.21700463,
 0.20005403,
 0.15396267,
   0.08766822,
 0.00748819,
 0.19353056,
 0.12415697,
 0.13718753,
 0.03255256,
   0.09113698,
 0.11652725,
 0.07617038,
 0.16302067,
 0.06876775,
-0.08543757,
   0.21441673,
 0.12929934,
 0.11426072,
 0.15438402,
 0.05476350,
-0.11125776,
   0.06114690,
-0.05786842,
 0.05538562,
 0.11836824,
-0.04282116,
 0.18522345,
  -0.00903566,
 0.02412103,
 0.08049005,
-0.19095157,
-0.05992777,
 0.23113889,
   0.00080706,
 0.08991536,
 0.14990830,
 0.15675002,
 0.04380423,
 0.11266153,
   0.05889950,
 0.21437845,
 0.09894282,
 0.06446840,
 0.08217501,
-0.07371794};
KERNEL_TYPE m_kernel_c[INPUT_FEATURE][UNITS]={-0.05960424,
-0.11453202,
 0.14042026,
-0.09100549,
-0.12780179,
 0.13555241,
  -0.08863442,
 0.12231384,
-0.03393812,
 0.04163764,
 0.07334122,
 0.12161331,
   0.14163269,
 0.12904514,
 0.02189667,
-0.15265404,
 0.10848387,
 0.14993590,
   0.15306351,
-0.10270951,
-0.10207500,
 0.15449414,
-0.11429311,
-0.07231244,
  -0.12252114,
 0.09102970,
-0.12602657,
-0.13899794,
 0.13702103,
-0.10738255,
  -0.06484330,
 0.09066087,
-0.16403437,
-0.00095411,
 0.11632749,
-0.13997762,
   0.04555444,
-0.10796443,
 0.09876167,
-0.12528384,
 0.14949001,
 0.06315828,
   0.14249019,
 0.11920116,
 0.16912389,
-0.14368948,
-0.08130750,
-0.10640739,
  -0.08189123,
-0.08225916,
 0.13309580,
-0.15535979,
 0.09434600,
-0.13579716,
   0.04851220,
-0.13475926,
 0.14662629,
 0.13179575,
-0.07585202,
 0.12518160,
  -0.12502840,
 0.14151055,
 0.13012847,
 0.06350181,
-0.14784089,
 0.16610296,
  -0.12499240,
-0.17926942,
 0.08983680,
 0.13541622,
-0.09552861,
 0.13702992,
  -0.15695409,
-0.13777468,
-0.00473538,
 0.14405854,
 0.11369395,
 0.08724240,
  -0.11131103,
 0.16235684,
-0.13377371,
-0.17003876,
-0.07996199,
 0.10728497,
  -0.04290136,
 0.09275355,
 0.11023038,
 0.05344910,
-0.10299287,
-0.12691912,
  -0.13833208,
 0.15638407,
 0.10966136,
-0.09059287,
-0.08950567,
 0.10337930,
  -0.10859153,
-0.13420133,
-0.10558519,
-0.15665355,
-0.10199773,
-0.10181717,
   0.02058316,
-0.09719480,
-0.08912320,
-0.04933347,
-0.12087968,
-0.13217127,
  -0.16385916,
 0.13610034,
-0.14547041,
 0.15948744,
 0.03995625,
 0.02721241,
   0.14089221,
-0.13982035,
-0.08834387,
-0.03345589,
 0.10173844,
-0.04544786};
KERNEL_TYPE m_kernel_o[INPUT_FEATURE][UNITS]={ 0.06851304,
 0.09437824,
 0.12500672,
 0.20200095,
 0.13044177,
 0.10505016,
  -0.10486098,
-0.02435719,
-0.11486448,
-0.18811138,
-0.10181651,
-0.00779755,
   0.06054189,
 0.15467797,
 0.07306810,
 0.08183941,
 0.11477793,
 0.10446162,
   0.16341461,
 0.13735200,
 0.15698726,
 0.06059144,
 0.01363967,
 0.09180054,
   0.09422372,
-0.01676756,
-0.06439872,
 0.11598878,
 0.10786058,
 0.10392087,
   0.16081281,
 0.14219728,
 0.11598440,
 0.09140226,
 0.08743696,
 0.07618446,
   0.10317024,
-0.02871767,
 0.11452700,
 0.07956091,
 0.02747688,
 0.12194430,
   0.05627919,
 0.04896918,
 0.15166360,
 0.08941800,
 0.11975853,
 0.03885432,
   0.13910878,
 0.11578014,
 0.08573586,
 0.11267051,
 0.12245600,
-0.01175848,
   0.04714999,
 0.01106511,
 0.03209294,
 0.09885691,
 0.14356562,
 0.12228251,
   0.12466539,
 0.09704641,
-0.02722537,
 0.12506045,
 0.09892523,
 0.09853041,
  -0.00925958,
 0.03541000,
 0.02695495,
 0.16784966,
 0.05552806,
 0.07079256,
   0.11789507,
-0.00859810,
-0.04428359,
 0.06163106,
 0.04991304,
 0.04791463,
   0.06801879,
 0.11876979,
 0.07300584,
 0.06527375,
 0.08113305,
 0.06808507,
   0.00431191,
-0.06393680,
 0.14248638,
 0.08647717,
 0.10110700,
-0.02422441,
   0.03389246,
-0.01971404,
 0.09617364,
-0.02098956,
 0.01967111,
-0.01044564,
   0.15650024,
 0.03411396,
 0.14017768,
-0.08753816,
 0.03942104,
 0.08618077,
  -0.13160960,
 0.09099965,
 0.00682786,
 0.10327694,
 0.07364935,
 0.06440324,
   0.05730438,
-0.11005645,
-0.01890412,
-0.00499565,
 0.01945826,
 0.14741549,
   0.12094263,
 0.09730753,
 0.08461688,
 0.12126940,
 0.11006866,
 0.00069369};
RE_KERNEL_TYPE m_re_kernel_i[UNITS][UNITS]={-0.14190058,
-0.03009291,
-0.23560953,
-0.06198950,
-0.00264429,
 0.04042363,
  -0.05920216,
-0.07008076,
-0.38705564,
-0.25856766,
 0.03451760,
-0.02463666,
  -0.14337853,
 0.02461455,
-0.35747799,
 0.01100175,
 0.07228743,
-0.03140659,
   0.08043942,
-0.10995125,
-0.25560737,
-0.34310669,
-0.07959678,
-0.18465555,
  -0.00757361,
-0.34403560,
-0.00136947,
 0.01936230,
-0.01737543,
-0.36802700,
   0.08247921,
-0.05891235,
-0.11965960,
 0.04803691,
-0.23430470,
 0.09736538,
  -0.11247660,
 0.02679231,
-0.29092354,
-0.18805996,
-0.13388950,
 0.04053185,
  -0.36597869,
-0.27167729,
-0.38003561,
-0.32363987,
-0.08087485,
-0.25319526,
  -0.02483917,
 0.08160052,
-0.17464510,
-0.14482853,
 0.03080139,
 0.04786358,
  -0.14683726,
-0.04373082,
-0.25863364,
 0.02087740,
 0.00389563,
-0.07274032,
  -0.23417276,
-0.25152907,
 0.00083022,
-0.01434971,
-0.40580228,
-0.24085480,
   0.01735529,
 0.02263604,
-0.30023372,
-0.18097658,
-0.40652657,
-0.18146597,
   0.01068602,
-0.06496737,
-0.14539579,
-0.02700900,
-0.38244450,
-0.01590427,
  -0.22525284,
-0.00712795,
-0.27904308,
-0.28010812,
-0.16035032,
-0.32209113,
  -0.21846841,
-0.05452011,
-0.35848758,
-0.52558154,
-0.25120863,
-0.04116563,
  -0.03585608,
 0.00134320,
 0.02757174,
-0.04971185,
-0.17261049,
 0.02060010,
   0.02546951,
-0.00529773,
-0.13587297,
-0.00759126,
-0.25696152,
-0.10758110,
  -0.06542495,
 0.03545329,
-0.26055953,
-0.05670510,
-0.02380548,
-0.15227833,
  -0.17130935,
-0.01796353,
-0.04690822,
-0.04117168,
 0.08580858,
 0.20859809,
  -0.21511339,
 0.08765133,
-0.26056260,
-0.00852010,
-0.10963521,
 0.02480222,
 -0.05351162,
-0.13677445,
-0.07890380,
-0.01154791,
-0.00920057,
-0.05500722,
  -0.03194297,
-0.13194056,
-0.01478132,
-0.10928702,
 0.04410118,
-0.03095538,
  -0.05696686,
 0.00167688,
-0.01426890,
 0.00184720,
-0.05386467,
-0.17044744,
  -0.13266009,
-0.14383800,
 0.02775491,
-0.00857085,
-0.15334891,
 0.06552808,
  -0.11170369,
-0.01830354,
 0.04033669,
-0.10079969,
 0.01814098,
-0.00427092,
  -0.02960468,
-0.11768515,
-0.01602370,
-0.10817991,
-0.01311351,
 0.16806841,
  -0.23700611,
-0.01089669,
-0.14456634,
-0.16778795,
-0.03622802,
-0.08793957,
  -0.10454315,
-0.03063663,
 0.02695513,
-0.09065250,
-0.10238038,
-0.06619982,
  -0.00888725,
-0.14001654,
-0.10953916,
 0.10767896,
-0.19422281,
-0.05124258,
  -0.04580647,
-0.01233350,
-0.07166096,
-0.01905088,
-0.12468605,
-0.03438846,
  -0.01115020,
 0.01889683,
 0.01606206,
 0.00177947,
 0.02794654,
-0.03180030,
  -0.15111040,
-0.05667958,
-0.14161763,
 0.05569129,
-0.07632527,
-0.04706278,
  -0.09930878,
 0.02610535,
-0.09799658,
-0.12328426,
 0.02018046,
 0.01183738,
  -0.04982224,
-0.08704343,
-0.03013306,
-0.09133857,
-0.06904035,
-0.07697261,
  -0.02992977,
 0.03616814,
-0.05393218,
-0.05613148,
-0.03146669,
-0.12840541,
  -0.02819128,
 0.00819417,
 0.01552487,
-0.11446148,
-0.02776488,
-0.19898471,
   0.01287921,
-0.19205606,
-0.08042107,
 0.04183756,
-0.00027174,
-0.11327196,
  -0.06772820,
-0.06205386,
 0.05273511,
-0.09305207,
-0.08605578,
 0.03931939,
  -0.00418800,
-0.08448120,
-0.10151882,
 0.00197334,
-0.08216824,
 0.12515776,
  -0.08960626,
-0.06567959,
-0.09220292,
-0.06865147,
-0.03531887,
-0.09336296,
  0.20762429,
 0.11485521,
 0.09499803,
 0.11895757,
-0.01268218,
 0.05787298,
   0.08250313,
 0.04070600,
 0.07990479,
-0.01535560,
-0.03720640,
 0.02526361,
   0.13080662,
 0.06303931,
 0.10864376,
-0.01124766,
 0.12286794,
 0.05301511,
   0.01488186,
 0.01049987,
 0.13041016,
 0.21585694,
 0.06860495,
 0.13705949,
   0.00994717,
 0.00898167,
 0.01705874,
-0.03681771,
 0.05498980,
 0.07816729,
  -0.01832397,
 0.09873625,
 0.12028728,
 0.05347768,
 0.11204997,
 0.19407442,
   0.12906928,
 0.01999158,
 0.04194744,
 0.07895128,
 0.10800438,
 0.02463183,
   0.05263076,
 0.08189929,
 0.09804773,
 0.10284579,
-0.00328884,
 0.05640968,
   0.12008581,
-0.05908824,
 0.15329139,
 0.17718104,
 0.10490888,
 0.00155877,
   0.02097433,
 0.00972087,
-0.03284919,
 0.02013136,
 0.01043374,
 0.03592399,
   0.11579617,
 0.08749095,
 0.01719139,
 0.00318182,
 0.08868278,
 0.11766779,
   0.03123925,
 0.01669463,
 0.11496275,
 0.09637615,
 0.03827106,
 0.09166377,
  -0.00611740,
-0.00811717,
 0.18262736,
-0.01723113,
 0.10845589,
-0.01727789,
   0.05865891,
-0.00937299,
 0.15405259,
 0.15863337,
 0.13608427,
 0.04544139,
   0.06222680,
 0.06625436,
 0.12192492,
 0.01156036,
-0.09714510,
 0.06626146,
   0.04554229,
-0.03472462,
 0.01431849,
 0.07195907,
 0.04380899,
 0.05490097,
   0.03711221,
-0.01401928,
 0.08330018,
 0.06578477,
 0.08278443,
 0.23518445,
  -0.01746714,
 0.03482258,
 0.06344551,
 0.10485923,
 0.06538956,
-0.68667382,
   0.17205784,
 0.02443493,
 0.13636355,
 0.08405758,
 0.17600343,
-0.18852817,
   0.19109678,
-0.03886845,
 0.01580841,
-0.06671219,
 0.17992727,
 0.03009564,
  0.04791927,
-0.06853207,
-0.05496698,
 0.00757612,
 0.01662431,
 0.00657588,
  -0.08433862,
-0.18780784,
-0.05048933,
-0.00886967,
-0.06422915,
-0.04383454,
  -0.05233436,
 0.03099338,
 0.09295107,
 0.01659048,
 0.01916466,
-0.09039606,
  -0.01833967,
 0.06398976,
-0.11113225,
-0.12722875,
 0.05482048,
-0.09906582,
  -0.03409828,
 0.12527031,
-0.01778074,
-0.10672604,
-0.06944337,
-0.04830104,
   0.02435588,
-0.04562408,
-0.06017957,
-0.18257953,
-0.11117888,
-0.18215713,
  -0.04796064,
-0.07760202,
-0.02953976,
-0.13421948,
-0.08495707,
 0.00264827,
  -0.08533513,
 0.00997291,
-0.01851290,
 0.00311681,
-0.00701122,
-0.19698776,
   0.00560440,
-0.10098116,
-0.12622555,
-0.04622635,
-0.03814456,
-0.11773845,
   0.06534168,
-0.09498435,
 0.09525955,
-0.04713824,
-0.01067472,
-0.09152306,
   0.14100334,
-0.02416103,
 0.01777891,
 0.00376532,
-0.13287246,
-0.14158672,
  -0.00078116,
 0.11397545,
-0.07869364,
-0.09566385,
 0.13616796,
-0.04005674,
   0.04984848,
-0.03602953,
-0.01004836,
-0.05786152,
-0.03554449,
 0.06062527,
  -0.02888653,
-0.03736014,
-0.00710296,
-0.07895966,
-0.10705482,
 0.10915433,
   0.03754131,
-0.02645587,
-0.06522200,
 0.12935503,
 0.16994058,
-0.08033679,
  -0.01176365,
-0.03465715,
-0.03925820,
-0.01510660,
 0.02987999,
 0.00582042,
   0.01402435,
-0.04969603,
-0.18789688,
 0.00469379,
-0.03437430,
-0.21871452,
   0.07621728,
-0.01730817,
 0.10161278,
-0.03948505,
-0.07127105,
 0.33821353,
   0.04083704,
-0.02145694,
-0.10856964,
-0.06251813,
-0.11122239,
 0.12955926,
  -0.13456793,
 0.00470938,
 0.06558941,
-0.03100772,
 0.00565161,
 0.03095176,
  0.09573802,
-0.09889261,
-0.04518908,
 0.11855334,
-0.05295517,
 0.04338402,
  -0.08088624,
-0.07019638,
 0.04685324,
-0.00652494,
-0.01726253,
-0.01081528,
  -0.03652387,
 0.07736350,
-0.01419930,
 0.03117258,
 0.06881034,
-0.08871790,
  -0.07906648,
 0.02516702,
 0.04666979,
-0.05211546,
-0.07932512,
-0.04263212,
  -0.08779635,
 0.09362604,
 0.01186344,
-0.11163270,
-0.09669170,
-0.06845699,
   0.00709447,
-0.12648456,
 0.00243150,
 0.00489699,
-0.06302558,
-0.29680026,
  -0.16026390,
 0.02915554,
-0.04747766,
-0.11588521,
-0.02380633,
-0.06772623,
   0.00656629,
 0.01703807,
 0.04344816,
 0.01075978,
-0.01783331,
 0.04088162,
  -0.00638756,
-0.05534975,
-0.05808919,
 0.04528498,
-0.04625022,
-0.01358209,
   0.11452363,
-0.06058520,
-0.06251907,
-0.00611693,
-0.02704459,
-0.05009281,
   0.01264991,
-0.04558970,
 0.00049852,
 0.01899545,
 0.01745574,
-0.07539527,
  -0.04790788,
-0.01969349,
-0.05926338,
 0.03257839,
 0.12940457,
 0.03716767,
   0.03533592,
-0.03738538,
-0.00329213,
 0.01239923,
 0.00484860,
-0.10198149,
  -0.05277483,
-0.05216732,
-0.07705999,
-0.07364725,
-0.06776870,
-0.00496246,
  -0.11556309,
-0.02353479,
-0.05513620,
 0.19317602,
-0.01497502,
-0.06021093,
  -0.06290149,
-0.09138498,
-0.01811685,
-0.02257231,
 0.01650550,
-0.04220308,
  -0.08781180,
-0.16660851,
-0.05025136,
-0.03175120,
-0.06745370,
-0.11906053,
  -0.01037726,
-0.03728451,
 0.06302195,
-0.06922571,
-0.05276877,
 0.37896341,
   0.01685451,
-0.05796648,
-0.13671309,
-0.15669185,
-0.08357027,
 0.01098242,
  -0.01827334,
 0.02264760,
 0.02173120,
-0.03370462,
-0.01864873,
-0.02738721,
 -0.02908919,
 0.08574620,
 0.01372084,
 0.01505823,
 0.09066970,
 0.06373619,
   0.09593773,
 0.01687444,
-0.01462839,
 0.03717339,
 0.05950959,
 0.03667593,
   0.11810708,
 0.02361286,
 0.00553648,
 0.04795345,
-0.03835203,
 0.05182251,
   0.03109944,
 0.05255213,
-0.05312599,
 0.03362241,
 0.11238305,
 0.10847241,
   0.00679928,
-0.05754416,
-0.02128637,
 0.06852707,
-0.04264971,
-0.04634961,
   0.03358495,
 0.08432381,
-0.02063492,
-0.01081531,
-0.02713289,
 0.28932431,
   0.03169197,
-0.04309352,
 0.07580242,
 0.20411474,
 0.00770634,
-0.01908107,
   0.02347988,
 0.01173809,
-0.06315285,
 0.11892278,
 0.02409548,
 0.10467136,
   0.03824501,
 0.05083724,
 0.05014601,
-0.00507488,
 0.07421014,
 0.01127702,
  -0.01660771,
 0.00561828,
 0.07217862,
 0.13078821,
 0.00118371,
 0.09201383,
  -0.08855326,
-0.07734708,
-0.03025859,
 0.05646313,
-0.11459535,
-0.04619481,
  -0.00738636,
 0.13272804,
 0.10903812,
 0.06149656,
-0.11872856,
-0.06657333,
  -0.03373093,
 0.00706393,
 0.00780375,
 0.04395849,
 0.02682009,
 0.09758329,
   0.04967251,
 0.01859949,
 0.05609348,
 0.02317230,
 0.00123207,
-0.04327981,
   0.07595971,
-0.00198356,
 0.02716009,
-0.19565371,
 0.06970330,
 0.12593177,
   0.00216005,
-0.00745661,
 0.06755056,
 0.00892437,
 0.01350194,
 0.08965722,
   0.06622997,
 0.04577451,
 0.00261795,
 0.04368071,
 0.01253522,
 0.03088104,
   0.00769805,
 0.11796508,
-0.03860284,
 0.07570735,
 0.09465719,
-0.32749873,
   0.16478521,
 0.04692930,
 0.18903740,
 0.07609153,
 0.04834909,
-0.13139531,
   0.11367246,
 0.00363817,
-0.01559234,
-0.09091349,
-0.03164382,
 0.10147469,
 -0.14553127,
-0.00564100,
-0.11007927,
 0.13857631,
 0.02058698,
 0.00104189,
  -0.13167898,
-0.06212809,
-0.08992746,
-0.08531974,
-0.00654110,
-0.00065200,
  -0.06581042,
-0.06183899,
-0.12220891,
-0.07576740,
-0.02640031,
-0.12207711,
  -0.05371763,
 0.03081041,
-0.08706474,
-0.09265287,
-0.07665115,
-0.05077284,
   0.02384996,
-0.01303699,
-0.09352034,
-0.02500629,
-0.04354066,
-0.02953931,
  -0.05838900,
-0.04812941,
-0.01157385,
 0.01096155,
-0.07383023,
 0.08770809,
  -0.07426383,
-0.05239388,
 0.02957680,
-0.09360106,
 0.00173601,
-0.02263201,
  -0.01250621,
-0.03885838,
-0.01617502,
-0.07642138,
-0.00893076,
-0.07295709,
  -0.05662842,
-0.00866129,
-0.06042279,
-0.06154228,
-0.13212201,
-0.03002242,
  -0.10104460,
-0.00475730,
-0.13075864,
-0.00408379,
-0.04351332,
-0.03832656,
  -0.12240345,
 0.00942626,
 0.04083778,
-0.11636751,
-0.06967466,
-0.06053286,
   0.05457758,
-0.00907721,
-0.10752120,
-0.00730723,
-0.07296676,
-0.01353403,
   0.01121191,
 0.07288325,
-0.11471861,
-0.01365998,
-0.02172691,
 0.02776916,
   0.07877810,
 0.02637237,
-0.04116146,
 0.04578349,
-0.14874947,
-0.06217676,
  -0.04873109,
-0.03073020,
-0.11451144,
-0.00754726,
-0.01466875,
-0.04400348,
   0.02189531,
-0.09081212,
 0.00162760,
-0.04989672,
-0.09186079,
 0.01468535,
  -0.00470343,
-0.06747375,
-0.14008619,
-0.05918429,
-0.11199315,
-0.06682651,
  -0.08726804,
-0.06044483,
-0.11604675,
-0.10299899,
-0.06490922,
 0.05074145,
  -0.07709240,
-0.01729419,
-0.03191463,
-0.09185058,
-0.10718530,
 0.09084150,
  -0.16335547,
 0.06363819,
 0.00840960,
-0.04552157,
 0.07347736,
-0.04138593,
  0.04078510,
 0.01944543,
 0.04078007,
-0.00310792,
 0.02124043,
 0.04120995,
   0.07654749,
 0.09130250,
 0.10682028,
 0.10362918,
 0.09912818,
 0.00547874,
   0.04338026,
 0.08823667,
 0.07054582,
 0.07681676,
-0.01120256,
 0.13174266,
   0.06631466,
 0.10627281,
-0.08799361,
 0.05789813,
 0.18825065,
-0.03196891,
   0.03866799,
 0.03731059,
-0.06784747,
 0.20063651,
 0.16666910,
 0.02769827,
   0.00113898,
 0.15899524,
-0.02636901,
 0.01556312,
-0.00258890,
-0.11020134,
   0.15135704,
 0.00180089,
 0.16531536,
 0.12270403,
 0.03264164,
 0.00467701,
   0.05580460,
 0.09602036,
-0.01057207,
-0.06155856,
 0.11682800,
 0.01076366,
   0.05727227,
 0.16629305,
 0.00024794,
 0.03313428,
 0.10086919,
 0.02692943,
   0.27114531,
 0.04733130,
 0.02734941,
 0.05555536,
 0.05033137,
 0.08759593,
   0.02876493,
 0.02336403,
 0.01504355,
-0.02246481,
 0.03786439,
 0.04806146,
   0.00413939,
 0.00125912,
 0.09486852,
 0.02747833,
 0.20339137,
 0.03385410,
   0.05673306,
 0.03497314,
 0.12328763,
-0.00767931,
 0.04864340,
 0.02154198,
  -0.04958626,
-0.01043592,
-0.00928349,
 0.07870707,
-0.05446887,
-0.01750862,
   0.10903639,
-0.04202861,
 0.10869391,
 0.01477432,
-0.06305163,
 0.02848126,
   0.06356921,
-0.06430320,
 0.05878595,
 0.00782903,
 0.06834447,
 0.06015226,
  -0.04621270,
 0.10768154,
-0.11236037,
-0.02399180,
 0.00658932,
-0.00244724,
   0.04392188,
 0.17265153,
 0.10946842,
 0.16618611,
 0.05226650,
-0.00317390,
  -0.04609909,
 0.05022718,
 0.09987149,
 0.00648894,
 0.16548647,
-0.08868474,
   0.04142309,
-0.00332596,
 0.06248316,
 0.14792536,
 0.01467935,
 0.09634420,
  0.15760820,
-0.09499149,
-0.03562757,
 0.22887033,
 0.02701090,
-0.02942550,
  -0.07277050,
 0.04798494,
 0.06368589,
 0.20989391,
 0.00794939,
-0.11517704,
  -0.14010441,
 0.02961666,
-0.02597771,
 0.06012175,
-0.02096337,
-0.11732589,
  -0.07516154,
 0.11868563,
 0.17138030,
-0.05572120,
 0.12525758,
-0.07384181,
   0.03653295,
 0.06592482,
 0.03445976,
-0.03050892,
-0.15052904,
 0.22232185,
  -0.03913128,
-0.02061063,
 0.10512505,
 0.13378437,
-0.05101185,
-0.12064971,
   0.22336982,
-0.00649905,
 0.10117096,
-0.12393863,
-0.00673588,
 0.07056751,
  -0.06837722,
 0.03406534,
 0.28669715,
 0.07377035,
 0.12120714,
-0.08358053,
   0.09789830,
 0.02244172,
 0.08358726,
 0.16140296,
-0.08755734,
 0.06327561,
   0.20647889,
 0.07964375,
 0.06375673,
 0.04130351,
-0.04553613,
-0.02663475,
  -0.05008987,
 0.10811373,
-0.03270650,
-0.06186228,
 0.16593613,
 0.03335463,
  -0.02676518,
 0.01777520,
 0.09615772,
-0.11442585,
 0.10439067,
 0.03166521,
  -0.00595470,
-0.02921766,
-0.09817548,
-0.00332995,
 0.03239149,
-0.04245732,
  -0.07129569,
-0.05110707,
 0.00415398,
-0.06966641,
-0.01737381,
 0.07483432,
   0.02833586,
-0.04791483,
 0.15325479,
-0.00065962,
-0.05543841,
 0.01674144,
  -0.01527060,
-0.05263400,
 0.03984899,
-0.00279466,
 0.01762521,
-0.00121280,
  -0.07859623,
-0.01428054,
 0.06464588,
 0.03110942,
-0.04778956,
-0.20435320,
   0.11577646,
-0.09399290,
 0.02598185,
 0.17507450,
-0.01615433,
 0.05389257,
  -0.01643193,
 0.06758633,
-0.01022543,
-0.01949747,
 0.08795054,
-0.15268581,
  -0.09510811,
-0.03807286,
 0.09155538,
-0.02111286,
 0.02322749,
 0.04486328,
  0.02049459,
 0.07259332,
 0.13110998,
 0.04099893,
 0.00164579,
-0.11399534,
  -0.04254745,
 0.06375556,
 0.10392524,
 0.20295344,
-0.00738445,
-0.05488598,
   0.04129846,
-0.03801244,
 0.14690046,
 0.03412045,
 0.00320149,
 0.00429492,
  -0.12011734,
 0.18753485,
-0.07076117,
 0.04529552,
-0.08045384,
 0.05638819,
   0.03092618,
 0.02016417,
 0.06213981,
-0.03706571,
-0.05219495,
 0.03227806,
   0.00080723,
 0.00261643,
 0.04265708,
-0.00017159,
 0.06985176,
-0.12359363,
   0.01224491,
-0.13673830,
 0.31395948,
 0.02461423,
-0.01767897,
 0.00787470,
   0.02335083,
 0.03201820,
 0.04398996,
 0.04028965,
 0.11524270,
-0.00602412,
   0.26821259,
 0.01789071,
 0.08495977,
-0.07039565,
-0.04117106,
-0.05132316,
   0.23934695,
 0.07756990,
-0.02911082,
-0.01008293,
 0.07227325,
 0.00716214,
   0.04644961,
 0.02111483,
 0.05221248,
-0.02095198,
 0.08568022,
-0.07473043,
  -0.01763314,
 0.00499439,
 0.10906424,
 0.07026010,
 0.48755556,
 0.13623443,
  -0.03285536,
-0.09397611,
 0.06031178,
-0.01898656,
 0.12190156,
-0.03059961,
  -0.11145014,
 0.01465476,
 0.11299578,
 0.04545769,
-0.00456507,
 0.09557686,
   0.25222322,
 0.05365586,
 0.07010601,
 0.02995506,
 0.55927366,
 0.01359816,
   0.02749467,
 0.01785844,
 0.05342568,
 0.03402746,
-0.03331167,
-0.06334249,
   0.03656359,
-0.00496002,
 0.00041438,
 0.00897779,
 0.10901856,
-0.02473067,
   0.11004113,
 0.00052200,
 0.04664830,
 0.10453199,
 0.01648562,
 0.61109877,
   0.07570633,
 0.09948082,
-0.00498544,
-0.04076289,
 0.01128032,
-0.15573132,
   0.02746131,
-0.00098066,
 0.22183998,
 0.07225813,
 0.08572087,
 0.20767796,
 -0.08113066,
 0.16908643,
-0.05364907,
 0.04851315,
-0.04470188,
 0.08489347,
   0.07750173,
 0.14450479,
 0.00592256,
 0.07227121,
 0.06549812,
 0.08542974,
   0.07199919,
 0.07627953,
-0.02477730,
 0.06136751,
 0.05723066,
 0.04261133,
   0.09985978,
 0.11396434,
-0.00944496,
-0.00247155,
 0.02301794,
-0.02456643,
   0.06087094,
 0.10753974,
 0.06217891,
 0.06277694,
 0.12755349,
-0.03807512,
  -0.02788922,
 0.05819365,
 0.01103593,
-0.01186423,
 0.08336140,
-0.19102077,
   0.24502379,
 0.07516799,
 0.15304846,
 0.03479578,
 0.04385068,
 0.05866651,
  -0.02507764,
 0.07000961,
-0.01122743,
 0.07916931,
 0.09687846,
 0.00168117,
   0.11178184,
 0.00199928,
 0.02071984,
 0.00929795,
 0.20255502,
 0.02860251,
   0.18002568,
 0.01975959,
 0.05761297,
 0.07647035,
 0.06138736,
 0.06380225,
   0.07717002,
 0.00959074,
 0.01966367,
 0.02478762,
 0.01422872,
-0.00461402,
   0.08457268,
 0.03486761,
-0.03983018,
-0.01394816,
 0.11137083,
-0.01454307,
   0.09663845,
 0.02328620,
 0.01699536,
 0.06025593,
 0.00131936,
 0.03116086,
  -0.01022068,
 0.12445255,
 0.00325658,
 0.03041062,
 0.00972054,
-0.03115312,
   0.03944159,
 0.01591864,
 0.09799058,
 0.09884530,
 0.00451487,
 0.06206158,
  -0.02543030,
 0.01178192,
-0.02433982,
 0.03886708,
 0.09800830,
 0.17200732,
  -0.01609382,
 0.08264641,
-0.05493457,
 0.10347938,
 0.05551752,
 0.04983938,
   0.03005093,
 0.05226184,
 0.27797860,
 0.15757696,
-0.00737423,
 0.01657811,
   0.07938534,
-0.00907988,
 0.02893028,
 0.04750894,
 0.09156264,
-0.10350493,
   0.04652778,
-0.07125404,
 0.02646278,
 0.01113382,
-0.04926597,
 0.10164721,
 -0.01956384,
 0.11061747,
-0.04736210,
-0.02815402,
-0.06047762,
 0.01103948,
   0.03271466,
 0.19592601,
 0.02211955,
 0.08690461,
 0.03093773,
 0.01647221,
   0.01607387,
 0.06321313,
 0.01070970,
 0.05318955,
-0.02061528,
 0.03004066,
  -0.01374839,
 0.18097019,
-0.08671144,
-0.00448878,
 0.04673330,
 0.01311366,
   0.04180307,
-0.07163326,
-0.03254832,
 0.13604814,
 0.01123151,
-0.00677408,
   0.14659996,
 0.15942793,
 0.05276109,
 0.11687984,
 0.03365860,
 0.00678520,
   0.21487677,
 0.02674346,
 0.10595588,
 0.05483923,
 0.06717009,
 0.09897128,
  -0.03679464,
 0.05582945,
 0.01333916,
 0.02172752,
 0.04847229,
 0.03145112,
   0.01336990,
 0.02143225,
-0.03390129,
-0.02880211,
 0.14121056,
-0.00073629,
   0.20869420,
-0.00141202,
 0.01732630,
 0.04865220,
 0.04627814,
 0.06185798,
   0.04520758,
 0.06791051,
 0.01988017,
 0.10613677,
 0.00034348,
 0.06278634,
   0.09374982,
-0.04145481,
 0.05930541,
 0.02389679,
 0.12089213,
 0.04534337,
   0.10532089,
 0.00433696,
 0.14157616,
 0.01839577,
 0.08121738,
 0.01788355,
   0.09549964,
-0.02958996,
 0.01691655,
 0.09796842,
 0.06368728,
-0.05905281,
   0.12708718,
 0.08145691,
 0.01450027,
 0.10142571,
 0.04182301,
 0.00190948,
   0.00746981,
 0.11293439,
 0.00830064,
-0.01628111,
 0.08295496,
 0.11797281,
   0.06648204,
 0.17286180,
-0.02178992,
-0.02281749,
 0.01654486,
 0.08438756,
   0.07222538,
 0.13586752,
 0.05739621,
 0.09791612,
 0.03474014,
 0.01299105,
   0.05349508,
-0.00056619,
 0.07959609,
 0.03768968,
 0.16820192,
-0.07477923,
   0.10854951,
-0.06348437,
 0.07835330,
 0.09843200,
-0.01364990,
 0.08191546,
  0.06564631,
-0.00221983,
-0.01100368,
-0.01709745,
 0.00123935,
-0.03132332,
   0.05773637,
 0.04121524,
 0.01101064,
 0.08496492,
 0.09881654,
 0.02574345,
   0.10207444,
 0.04419262,
 0.04647582,
-0.00076041,
-0.04329094,
-0.07807416,
   0.14932013,
 0.08161750,
 0.03123623,
 0.01838384,
 0.11832339,
-0.01708761,
   0.07892770,
-0.00231903,
 0.10277079,
 0.09348473,
 0.11469048,
 0.03142608,
   0.04687139,
 0.17292641,
-0.03609399,
 0.12173454,
 0.06362665,
 0.38674852,
   0.05188546,
 0.07753226,
-0.05718294,
 0.06173530,
-0.01394341,
 0.00201279,
   0.00786795,
 0.01279544,
-0.09306634,
-0.01470465,
 0.00675429,
 0.03876218,
  -0.00572580,
 0.00177328,
 0.06281416,
-0.02202906,
 0.05268056,
 0.02734772,
   0.11557440,
-0.05352352,
 0.01236503,
-0.04266805,
 0.02128728,
 0.01635537,
   0.04112167,
-0.01489179,
-0.01215158,
-0.06535963,
-0.05261761,
 0.10052538,
   0.05595979,
-0.04669887,
 0.00658245,
-0.08077354,
-0.09461632,
 0.03834246,
   0.05456614,
 0.04791564,
 0.07233258,
 0.03106643,
-0.03146165,
 0.10587461,
  -0.01767833,
 0.06417640,
-0.00031356,
-0.02649858,
 0.03982284,
 0.00771646,
   0.06547210,
-0.03330993,
 0.04201512,
-0.16354355,
 0.07302669,
 0.04535279,
   0.01052572,
 0.07786623,
 0.03654326,
 0.03582668,
 0.03702563,
 0.05965427,
   0.02487503,
 0.10605378,
 0.01593594,
-0.08988750,
 0.03559932,
 0.11487171,
   0.04188405,
 0.03320434,
-0.01422335,
 0.09809359,
 0.04073801,
-0.33181515,
   0.08773424,
 0.06710951,
 0.08490333,
 0.03888812,
 0.12901340,
-0.11809445,
   0.00458648,
-0.04761368,
-0.09365820,
-0.02429165,
-0.01315592,
 0.06999955,
 -0.03634063,
 0.06991316,
 0.02786271,
 0.02940167,
 0.06134449,
 0.06837153,
   0.06672294,
 0.09707112,
-0.04561132,
-0.05387583,
-0.11196617,
 0.07001491,
   0.04970739,
 0.08256848,
 0.04418611,
 0.01746407,
 0.03292228,
 0.05644107,
   0.02046395,
-0.05174307,
 0.01982825,
-0.02510889,
 0.01522777,
 0.05927330,
   0.00914934,
-0.08537048,
 0.01937800,
-0.03752586,
 0.06732815,
 0.04249965,
   0.03594807,
 0.05141445,
 0.00460474,
 0.00372534,
-0.02491374,
 0.27341604,
   0.10953146,
 0.05987263,
 0.05428554,
 0.01327467,
 0.04627807,
-0.10036009,
   0.10127892,
-0.04401464,
-0.00361947,
 0.10168748,
 0.03600623,
 0.12164594,
   0.11197250,
 0.02344367,
 0.09209480,
 0.03872616,
-0.01696464,
 0.10441187,
  -0.05810686,
 0.00563982,
 0.02963446,
 0.00468975,
 0.07165932,
 0.03334562,
   0.09444202,
 0.09098830,
 0.04125007,
-0.02809859,
 0.01428769,
-0.02383180,
   0.02569373,
-0.06220831,
 0.08095701,
 0.05216900,
-0.04983287,
 0.05598788,
   0.04508991,
 0.07086180,
 0.06323373,
 0.06136119,
-0.06041168,
 0.07461480,
   0.02206220,
-0.04088777,
 0.03535281,
 0.02222690,
-0.05412104,
-0.01265829,
   0.08159116,
 0.03099086,
-0.04249293,
-0.15777156,
 0.02680665,
 0.04853654,
  -0.06912483,
 0.06912259,
 0.04867717,
 0.05126692,
 0.03018669,
 0.07794288,
   0.12488426,
 0.04562216,
-0.00328833,
 0.04873398,
 0.10502817,
 0.10617966,
  -0.01396907,
 0.00639112,
 0.02445707,
 0.07610375,
 0.05192146,
-0.64725041,
   0.03962871,
-0.00357266,
 0.09918133,
 0.06276378,
 0.03460731,
-0.11232747,
   0.03776649,
-0.00682475,
-0.00038379,
-0.09927744,
 0.00290700,
 0.04727843,
 -0.07219414,
-0.08749436,
-0.13958120,
-0.21561617,
 0.03318283,
 0.01948441,
   0.04905027,
-0.05425298,
-0.13507783,
-0.21457677,
 0.06169645,
 0.00691218,
   0.11389967,
 0.00439896,
-0.09613020,
 0.01003008,
-0.12010039,
 0.05228134,
   0.05450436,
-0.15144190,
-0.25862363,
 0.00557306,
-0.07931057,
-0.11531257,
  -0.04145708,
-0.16654576,
 0.02081102,
 0.03041413,
-0.05494058,
-0.11343274,
   0.06129564,
 0.07716700,
 0.00120432,
-0.05476677,
-0.05177434,
 0.03925003,
  -0.15483660,
 0.03011751,
-0.07776819,
-0.03444301,
-0.08182909,
-0.05566277,
  -0.09304211,
-0.10906397,
-0.20584688,
-0.28044924,
-0.10648073,
-0.03941173,
   0.04923178,
-0.04255126,
-0.07569977,
-0.32582408,
 0.04328744,
-0.00048468,
  -0.23568623,
 0.02865500,
-0.06542917,
-0.02694053,
-0.02340694,
-0.08099130,
  -0.02108135,
-0.17908871,
 0.01128232,
-0.02024570,
-0.07683743,
-0.01862207,
  -0.10004132,
 0.03978392,
-0.13637081,
 0.05165784,
-0.12626231,
-0.11390769,
  -0.03595233,
-0.00191995,
-0.03496560,
-0.03860513,
-0.13490960,
 0.01698791,
   0.03780599,
-0.00518716,
-0.22775193,
-0.00163340,
-0.09462179,
-0.13007398,
  -0.06935780,
 0.03534241,
-0.23702160,
-0.07030401,
-0.01628496,
-0.04034863,
   0.02071413,
 0.01355584,
 0.04697996,
 0.08102775,
-0.05291714,
 0.04786418,
   0.01417817,
-0.05933557,
-0.13378471,
-0.05774545,
-0.01163089,
 0.20121758,
  -0.08080044,
-0.07721394,
-0.11308181,
-0.08215463,
-0.04111315,
-0.00500385,
  -0.09025129,
 0.03728469,
 0.06352592,
 0.00639314,
 0.00893788,
 0.13466385,
   0.18803683,
-0.01749099,
-0.11365791,
 0.00486438,
 0.00258221,
-0.02261624,
 -0.05745504,
-0.05361711,
-0.03799303,
 0.03183935,
 0.02132967,
-0.07424953,
  -0.07196538,
-0.12876306,
 0.01295725,
-0.13609801,
-0.11219970,
-0.00864203,
  -0.04328918,
-0.01844587,
-0.10064959,
-0.07370101,
 0.00123584,
-0.01388072,
  -0.12033121,
-0.11578111,
-0.11735158,
-0.01687807,
-0.07806705,
-0.06448165,
  -0.02216126,
 0.03505723,
-0.01620696,
-0.10067533,
-0.06516943,
 0.03891337,
  -0.08302262,
-0.14845879,
-0.00454625,
-0.00755651,
 0.00660716,
 0.04573021,
  -0.12523979,
-0.06634472,
-0.03532268,
-0.13060850,
-0.00729710,
-0.05231754,
  -0.06234689,
-0.04971876,
-0.04369612,
 0.02663572,
-0.04412774,
 0.01514529,
  -0.00691036,
-0.13525780,
-0.06052013,
 0.03710093,
-0.12080717,
-0.05894088,
  -0.09883839,
-0.08925191,
-0.04936006,
-0.01970697,
-0.08854126,
-0.01241818,
  -0.10094769,
-0.07331736,
 0.02520563,
-0.10567424,
-0.07156431,
-0.11233340,
  -0.01238902,
-0.04149423,
-0.07520170,
-0.00534504,
 0.00837439,
-0.01807313,
  -0.00993340,
-0.01753159,
-0.08063864,
-0.04689732,
-0.14252190,
-0.01437495,
  -0.09759872,
-0.10210317,
 0.01917494,
-0.01246791,
-0.02850704,
-0.00217452,
  -0.04470365,
-0.00942766,
-0.05139261,
-0.03679478,
-0.06652287,
-0.12486568,
  -0.09488515,
-0.04493617,
-0.05215323,
-0.09099951,
-0.06034923,
-0.00748348,
  -0.05941477,
-0.10068016,
-0.06060133,
-0.05972977,
 0.01184353,
-0.08768860,
  -0.05025885,
-0.07428114,
 0.02356170,
-0.02795533,
-0.02332953,
 0.01535453,
  -0.05491505,
 0.08638225,
-0.08825689,
-0.12403514,
-0.07416990,
 0.08639260,
   0.00701481,
 0.01228686,
-0.09999219,
 0.03371880,
-0.03275170,
-0.07476208,
 -0.00923499,
 0.09202620,
 0.13676938,
-0.03284390,
 0.04200586,
-0.03078115,
   0.06661776,
 0.02395418,
-0.05195262,
 0.03424042,
 0.05602813,
 0.05480192,
   0.05717048,
 0.04330601,
 0.02244356,
-0.02939785,
 0.06017943,
 0.11870439,
  -0.00339523,
-0.04523861,
 0.02586497,
 0.01741961,
 0.08877029,
-0.02428580,
  -0.03561041,
-0.10615031,
 0.09654160,
 0.11346024,
 0.05346076,
 0.00483312,
   0.00153938,
 0.07551896,
-0.01937821,
 0.08356481,
-0.03197376,
 0.42569143,
   0.15086842,
-0.00142039,
 0.02366562,
 0.16656709,
-0.00406121,
-0.06017152,
   0.02329191,
 0.03156264,
-0.03103040,
-0.00845310,
 0.02170708,
-0.01327037,
   0.03431536,
 0.00806797,
 0.09967734,
-0.00267707,
 0.01867634,
 0.04088024,
  -0.00140013,
 0.06573834,
-0.05456229,
 0.08982487,
 0.04658590,
-0.02487123,
   0.07473178,
 0.07168881,
 0.00062185,
 0.02360726,
 0.04164343,
-0.01298262,
   0.10750176,
 0.10184523,
 0.02389973,
 0.07846216,
-0.18128757,
-0.05201223,
  -0.00814245,
-0.00696873,
 0.01685149,
 0.08024134,
-0.00406119,
 0.01001553,
  -0.04741334,
 0.04235693,
-0.04623786,
 0.07678275,
 0.10988753,
 0.01688976,
   0.05939524,
 0.04443645,
-0.05139327,
-0.17510691,
-0.05201181,
 0.06099181,
   0.01601728,
 0.02839028,
 0.01994429,
-0.01969013,
 0.03698039,
 0.10592213,
   0.15925840,
 0.08321011,
 0.02935633,
 0.01310706,
-0.05609223,
 0.08629889,
   0.06114665,
 0.03180137,
 0.00553864,
 0.00810216,
 0.02813447,
-0.42688257,
   0.04851640,
 0.04373588,
 0.14253977,
 0.06053543,
 0.09688162,
-0.04745610,
   0.03050865,
-0.08860768,
-0.03483530,
 0.01525631,
 0.03396206,
 0.01201295,
  0.04714030,
 0.07283251,
 0.10033511,
 0.03339221,
 0.08956563,
-0.01844238,
   0.03495652,
 0.08134130,
 0.06309269,
 0.06120663,
-0.00332824,
-0.01558397,
   0.08305834,
-0.02158052,
-0.03985177,
 0.05723748,
-0.07493772,
 0.03066120,
   0.14291710,
 0.11622335,
 0.04029489,
-0.06899232,
 0.11819796,
 0.01354038,
  -0.04164084,
-0.01138112,
 0.04636785,
 0.13481027,
 0.00893394,
 0.00692636,
   0.02211248,
 0.19793013,
-0.04717438,
 0.08720596,
 0.08985436,
-0.01424480,
   0.12829226,
 0.03850034,
 0.11208569,
 0.07842164,
 0.00702794,
 0.01196217,
   0.08759477,
 0.00741669,
 0.06394603,
 0.02192360,
-0.00047814,
 0.09229522,
   0.06607170,
 0.01000524,
 0.00690098,
 0.00965383,
 0.14296488,
 0.06220045,
   0.07566857,
-0.07352638,
 0.00538292,
 0.07950078,
 0.12360650,
 0.06127197,
  -0.02607226,
 0.07263707,
 0.07819434,
 0.14024122,
-0.04025672,
 0.02082777,
   0.02934066,
 0.03937764,
 0.05226997,
 0.06103591,
 0.04729037,
 0.03895500,
   0.06828909,
-0.07322027,
 0.09247559,
 0.03247187,
-0.01457830,
 0.02033346,
  -0.10818695,
-0.00273364,
 0.01834839,
 0.04575973,
-0.00049420,
 0.01677650,
   0.09808920,
 0.09808108,
 0.01689433,
-0.03508403,
 0.03118692,
 0.08491001,
   0.09411969,
 0.01608142,
 0.03450813,
 0.13224694,
 0.03120509,
 0.06358325,
   0.06733071,
 0.03853261,
 0.03599006,
 0.00948928,
 0.02562240,
 0.06639066,
   0.07138859,
-0.02270607,
 0.05468624,
 0.08695854,
 0.07832938,
-0.01123817,
   0.10377906,
 0.05411159,
 0.12254507,
 0.04468502,
 0.11980521,
-0.07055417,
  -0.01949491,
 0.09477944,
 0.09282354,
-0.01363602,
-0.03549214,
 0.10937506,
  0.07317139,
 0.09975728,
 0.07044847,
-0.01167797,
-0.01049684,
-0.04473949,
   0.09633277,
 0.01662699,
-0.01678418,
-0.06238909,
-0.01536086,
-0.00020512,
   0.07506992,
 0.07097333,
-0.02829314,
-0.00351998,
 0.00994055,
 0.05541138,
   0.04313246,
 0.00363993,
 0.01359548,
 0.06757740,
 0.06219196,
 0.07203446,
   0.04467619,
-0.08762765,
 0.04252288,
 0.03836961,
 0.04429537,
 0.08114608,
   0.02215010,
 0.05151268,
 0.05765754,
 0.06664490,
-0.00545725,
 0.32626450,
   0.09423186,
 0.10064270,
 0.11915720,
 0.13330872,
 0.04829566,
 0.04566194,
  -0.03119923,
 0.16649601,
 0.07177377,
 0.03615892,
 0.05070401,
-0.01880132,
   0.01499679,
 0.08158588,
 0.04991772,
-0.03643176,
 0.04017660,
 0.07614954,
  -0.07967718,
 0.01047040,
 0.06031588,
 0.14802670,
 0.01772502,
 0.07663405,
   0.01596345,
 0.05472606,
 0.03702204,
 0.01641625,
-0.00267748,
 0.09356043,
   0.03642339,
 0.07060508,
-0.01538242,
 0.07953354,
 0.01686772,
-0.01949194,
  -0.05092915,
 0.08010288,
-0.01657206,
 0.01603946,
 0.03664460,
-0.01133528,
   0.06383382,
-0.06238460,
 0.01177013,
 0.04803623,
 0.01304209,
 0.05878979,
   0.01928085,
-0.09852370,
 0.06672913,
 0.00895020,
-0.03332386,
 0.10993630,
   0.06332538,
 0.00954847,
 0.00130253,
-0.01037491,
-0.10564907,
 0.04817848,
   0.06082152,
 0.07449511,
 0.00543153,
-0.02276754,
 0.01703602,
 0.08532273,
   0.05073503,
 0.00821897,
-0.02781615,
 0.09071411,
-0.01472687,
-0.59162152,
   0.08674705,
-0.04363937,
 0.07051121,
-0.00487666,
 0.02937705,
-0.03680193,
   0.07258568,
 0.13125004,
-0.09494673,
 0.05540970,
-0.01578985,
 0.04998415,
  0.06200219,
-0.07007691,
-0.07715323,
 0.12200329,
-0.09251677,
-0.02518832,
  -0.04776514,
-0.00971004,
-0.00978131,
 0.10338405,
 0.03287669,
-0.01874724,
   0.02805012,
-0.05586740,
-0.04348683,
-0.00630895,
-0.04831318,
-0.12099175,
  -0.00693096,
 0.06118093,
-0.07840092,
 0.11462067,
-0.03171831,
-0.11205932,
  -0.08188375,
 0.08080538,
-0.00094835,
-0.02494399,
-0.01986273,
 0.05520242,
   0.02405452,
-0.09756062,
 0.09644710,
 0.02368555,
 0.06437547,
-0.07794381,
  -0.05831425,
-0.06411089,
 0.15063599,
-0.07466030,
-0.02369510,
-0.00203522,
  -0.00688577,
 0.03059197,
-0.02616586,
 0.00725696,
 0.13829473,
-0.01184665,
   0.02982797,
-0.06978672,
 0.00442577,
-0.00353646,
-0.07142981,
-0.05863540,
   0.18414086,
-0.03944203,
 0.06971353,
-0.13826625,
-0.10807446,
-0.07028946,
  -0.09076235,
-0.02044212,
-0.01226573,
 0.07493432,
 0.07141079,
 0.07784387,
  -0.00326308,
-0.03451280,
 0.01396650,
-0.08456203,
 0.10744079,
-0.00357897,
  -0.04674805,
-0.04486251,
 0.14667073,
 0.00587829,
 0.10302314,
-0.01773205,
  -0.04241115,
-0.02016285,
 0.02320804,
-0.01621695,
 0.01711075,
 0.09625404,
   0.01981489,
-0.04793699,
-0.02782227,
 0.07661963,
 0.02739573,
-0.06820927,
  -0.12174650,
-0.11670484,
-0.02534894,
-0.05267755,
-0.07502206,
-0.03912779,
   0.05304113,
-0.16124146,
-0.05762617,
 0.03005253,
-0.21536379,
-0.09936908,
   0.08170138,
-0.03477309,
 0.13100173,
 0.12735459,
-0.00201201,
 0.04770628,
  -0.00941244,
-0.03541258,
-0.10253403,
-0.05267294,
 0.05646817,
-0.08262356,
   0.02052591,
-0.02491971,
 0.08354453,
 0.01081439,
 0.03135660,
 0.05758057,
 -0.00705318,
-0.02059835,
-0.06929819,
-0.22779340,
-0.09218093,
 0.03218674,
  -0.15139683,
 0.00366081,
-0.02233308,
 0.08259527,
-0.00275250,
-0.00165641,
  -0.11552871,
 0.04033152,
-0.00296005,
 0.06953422,
 0.06407691,
-0.10109331,
  -0.06516416,
-0.06997863,
-0.10025625,
-0.02879485,
 0.00160577,
-0.07490185,
  -0.08024192,
 0.45122355,
 0.11412366,
-0.03448301,
-0.09186722,
-0.04867577,
  -0.05460652,
-0.01680164,
-0.12194383,
-0.05258211,
-0.08877221,
-0.22594732,
  -0.12155896,
-0.05702712,
-0.10384408,
-0.00692558,
-0.08803956,
 0.01533052,
  -0.04309946,
-0.10709869,
-0.06752444,
-0.10559696,
 0.05800235,
-0.09260449,
  -0.10093863,
-0.03315788,
-0.19172597,
-0.22872062,
-0.04956239,
-0.00741954,
  -0.08897500,
-0.05930858,
-0.03420791,
-0.07664122,
 0.00041068,
-0.05731063,
  -0.09611069,
-0.20712946,
 0.04146267,
 0.00606172,
-0.08780167,
-0.09474611,
  -0.09724353,
-0.05196507,
-0.17433369,
-0.10235885,
 0.01640982,
-0.15290156,
  -0.07657747,
 0.00897567,
-0.10586910,
-0.00805307,
-0.08703513,
-0.05306622,
   0.00705145,
-0.01374237,
-0.07067016,
-0.06121234,
-0.07186701,
-0.05958885,
  -0.01211864,
 0.09759571,
-0.02557660,
-0.06829952,
 0.02059003,
-0.01655597,
  -0.00882405,
-0.05080561,
-0.03945560,
 0.01876472,
 0.06669741,
-0.03769748,
  -0.02979169,
-0.05273354,
-0.12084576,
-0.07609883,
-0.15054090,
-0.23193620,
  -0.00610807,
-0.01171008,
 0.04504887,
-0.05795654,
-0.11958065,
 0.87693602,
  -0.03244958,
 0.05622957,
-0.00465313,
-0.03420375,
-0.10998243,
 0.11325803,
  -0.15812454,
-0.04068812,
-0.05031811,
-0.00837025,
-0.21562864,
-0.07558580,
  0.13696396,
 0.11219856,
 0.11260743,
 0.07707623,
 0.04639638,
-0.02955961,
   0.14156157,
 0.02423477,
-0.02342321,
 0.05391301,
 0.05853759,
 0.05461187,
   0.05266094,
-0.01907550,
 0.06476035,
 0.03501195,
-0.05705751,
 0.00298522,
   0.01800117,
 0.09585977,
 0.07412524,
 0.03827317,
 0.01752711,
-0.03614831,
   0.02413068,
-0.05079677,
-0.01724461,
 0.04675204,
 0.05785985,
 0.06092566,
   0.05682322,
 0.09245759,
 0.01192715,
 0.03351804,
 0.08040354,
-0.15884319,
   0.10456716,
-0.00062037,
 0.07000792,
 0.10789569,
 0.11462764,
 0.07310593,
   0.04832976,
 0.06539031,
 0.04925206,
-0.04070502,
 0.09463111,
 0.08062096,
   0.09030335,
 0.05185902,
-0.04317977,
 0.02706462,
 0.01463115,
 0.04246613,
   0.13920122,
 0.12603378,
 0.01153604,
-0.00435091,
 0.00733254,
 0.01301950,
   0.00003955,
 0.07463892,
-0.03336294,
 0.00128136,
 0.02699786,
 0.09644659,
   0.01170582,
-0.01810535,
 0.02352405,
 0.08835687,
 0.15832213,
-0.01316676,
   0.08511575,
 0.03426708,
 0.21932985,
 0.09435912,
 0.07411324,
 0.07706501,
   0.09820902,
 0.08897379,
 0.08280320,
 0.01498360,
 0.04899358,
 0.03014795,
   0.22120564,
 0.01240402,
 0.06730171,
-0.02179476,
 0.01698493,
 0.05470520,
   0.04622284,
-0.01952411,
 0.01147137,
 0.06081412,
-0.02979904,
-0.00591979,
   0.06563357,
 0.07262231,
 0.02067024,
-0.02750297,
 0.04384986,
 0.14040670,
   0.14233603,
 0.03495423,
 0.02388938,
 0.00790188,
 0.09288017,
-0.02128768,
   0.12406816,
 0.00970803,
 0.00141200,
 0.06586895,
 0.17282057,
-0.12843066,
   0.12306681,
-0.03483947,
 0.06135706,
-0.02130572,
 0.02456368,
 0.10427316,
 -0.01014276,
-0.10449199,
-0.06613399,
 0.09643042,
-0.02323315,
-0.04997418,
   0.00140613,
-0.13482033,
 0.10018970,
-0.04807048,
-0.01622280,
-0.02146910,
  -0.01549270,
-0.08559547,
 0.05952507,
 0.02042055,
 0.01357769,
-0.07083450,
  -0.02495171,
 0.00315086,
 0.06195356,
 0.02914169,
-0.08891712,
 0.10041855,
  -0.09445719,
 0.08035164,
 0.04614632,
-0.06290995,
-0.07782906,
 0.06137863,
  -0.07152832,
-0.12209821,
-0.04771549,
 0.02007409,
 0.04992110,
-0.04181422,
  -0.15150037,
-0.08083763,
-0.15304871,
-0.17384449,
-0.11284906,
 0.00549581,
  -0.00457607,
-0.04704346,
-0.05314238,
 0.01328285,
 0.06727524,
 0.02881431,
  -0.02465476,
-0.12642233,
 0.10049101,
 0.04138855,
-0.21221994,
-0.06421039,
   0.05358037,
-0.05857163,
-0.10172518,
-0.00295837,
-0.12371001,
-0.09162389,
   0.05218140,
 0.14776345,
 0.02389775,
-0.00629956,
 0.05077463,
-0.04660469,
  -0.03136740,
-0.05440874,
 0.10252631,
-0.04484893,
 0.05902439,
-0.03084928,
  -0.01711703,
 0.04003793,
-0.08078534,
 0.01204413,
 0.12907054,
-0.07360570,
  -0.03554911,
-0.00728352,
 0.01123495,
 0.05404153,
-0.02628135,
 0.09121113,
   0.00636262,
 0.00429139,
 0.04143929,
 0.11847138,
 0.11582350,
-0.15298082,
  -0.09358542,
-0.05140522,
 0.01814969,
-0.03204486,
 0.06724653,
-0.06825190,
  -0.00292485,
-0.11055589,
-0.02157984,
-0.08196507,
 0.06877035,
-0.01512484,
   0.02308332,
-0.10629194,
 0.07712021,
-0.10228404,
 0.03322697,
 0.10025445,
   0.04361314,
-0.04499893,
-0.10454053,
-0.12563396,
-0.02640854,
-0.08991547,
  -0.00235930,
-0.02147218,
-0.00429015,
-0.05205211,
 0.01950466,
-0.03715793,
 -0.08738025,
-0.08348037,
-0.07777044,
-0.17778574,
-0.06349234,
 0.03320232,
  -0.08542352,
-0.04484835,
-0.14054209,
-0.05739077,
-0.01901256,
-0.11050574,
  -0.13907170,
-0.02619992,
-0.08198283,
-0.05619761,
 0.02071022,
-0.00660043,
   0.00755511,
 0.05658755,
-0.19809422,
-0.14608826,
-0.02208153,
-0.07446549,
  -0.02475943,
-0.01315705,
 0.00843961,
-0.10661994,
-0.02794044,
-0.06011304,
  -0.09345978,
 0.02414655,
-0.17849356,
-0.04397941,
-0.13374147,
-0.15863307,
  -0.06462751,
-0.10713962,
 0.03111688,
-0.16184980,
-0.05629295,
 0.01104586,
  -0.07627521,
-0.12001169,
-0.13115582,
-0.14039277,
 0.01625802,
-0.14948690,
  -0.08374887,
 0.00996631,
-0.02465111,
-0.15321299,
-0.00566277,
 0.07727876,
  -0.08577784,
 0.01815002,
-0.07545981,
-0.02116759,
-0.04057499,
-0.01293783,
  -0.14708507,
-0.13834448,
 0.00284848,
-0.09195024,
-0.07331407,
-0.09711830,
  -0.07764260,
-0.03033400,
-0.14483967,
-0.03426781,
-0.07230963,
-0.17521748,
   0.00561409,
 0.00945229,
-0.18585804,
-0.04758231,
-0.04220311,
-0.06466487,
  -0.13603462,
-0.04088182,
-0.14733954,
-0.04747435,
-0.09139948,
-0.03733606,
  -0.05105159,
 0.00608952,
-0.14711276,
-0.03542720,
 0.05392748,
-0.07725987,
   0.01122372,
-0.05380194,
 0.03334826,
 0.01297231,
-0.00861125,
 0.01528484,
  -0.04465739,
-0.01572173,
-0.08126960,
 0.01239009,
-0.14797157,
-0.24780121,
  -0.03333864,
 0.01706305,
 0.05340999,
-0.13913526,
-0.09321941,
 0.53618884,
  -0.13109106,
-0.02650998,
-0.13733512,
-0.08965956,
-0.09840617,
 0.04752925,
  -0.20444848,
-0.00016657,
-0.00431114,
 0.05122638,
-0.14706692,
-0.08868635,
 -0.06896873,
-0.05531146,
-0.08185037,
 0.00311009,
 0.07258388,
-0.03231295,
  -0.03268562,
-0.07611673,
-0.03041749,
-0.05365899,
 0.06187123,
-0.09333159,
  -0.06657106,
-0.05082173,
-0.08923460,
-0.00909446,
 0.01478991,
-0.01971243,
  -0.02519162,
-0.02656400,
 0.03221420,
-0.06235848,
-0.05709973,
-0.16135731,
  -0.06632302,
 0.08230373,
-0.06774873,
-0.03421843,
-0.06805361,
-0.02453285,
  -0.00464627,
-0.21393067,
 0.00930909,
-0.03812051,
-0.08978885,
-0.16398390,
   0.00495944,
-0.05247842,
-0.00569910,
-0.05997416,
-0.02328426,
-0.10055880,
   0.00178524,
-0.03558524,
-0.01231589,
 0.01612694,
-0.02374389,
-0.03669539,
  -0.01559980,
-0.10435268,
-0.12816262,
-0.02748142,
-0.00364259,
-0.07533487,
  -0.07699637,
-0.00385123,
-0.06165337,
-0.03294696,
-0.05918263,
-0.06938019,
  -0.09399954,
-0.09605668,
 0.05609470,
-0.04712471,
-0.08337279,
-0.10436036,
  -0.00771717,
-0.05666121,
-0.03984661,
-0.00024449,
-0.02367309,
-0.03916428,
  -0.00090556,
-0.01224855,
 0.03767566,
-0.10959122,
 0.05967030,
-0.15825194,
   0.01782259,
-0.08859268,
-0.06633998,
-0.03206717,
 0.00039554,
-0.03729308,
   0.03076938,
-0.05687503,
-0.09613506,
-0.01596098,
-0.02486129,
-0.02171659,
  -0.12701410,
-0.03513684,
 0.03627135,
 0.02717888,
-0.01861494,
-0.08810697,
  -0.00321863,
-0.09511353,
-0.00461905,
-0.04277812,
-0.11996489,
-0.06598495,
  -0.06448683,
-0.05001049,
-0.05944453,
-0.02829161,
-0.10499781,
 0.65287775,
  -0.08600870,
-0.07926787,
-0.01142505,
 0.00825058,
-0.10009968,
 0.17435752,
  -0.14178537,
-0.07325606,
-0.03795848,
 0.05643803,
-0.00362890,
-0.03165480,
  0.07104738,
 0.20389070,
 0.06022139,
-0.32152179,
 0.02596188,
-0.01878534,
   0.17510693,
 0.02703172,
-0.25611860,
-0.08831142,
-0.03492447,
 0.10080035,
   0.02318842,
 0.11906590,
-0.21345383,
 0.01457293,
-0.02556335,
-0.00140015,
   0.02452347,
-0.16163482,
-0.04134818,
 0.03072978,
 0.02504245,
-0.03744805,
   0.11705271,
-0.08009344,
 0.00477880,
 0.18539456,
 0.10084180,
-0.09889819,
   0.07625944,
 0.14996833,
-0.07092375,
 0.03102358,
-0.01471341,
 0.13920268,
   0.10424035,
 0.03793179,
-0.00339135,
 0.10893770,
 0.00767721,
 0.07078464,
  -0.02451431,
-0.10436352,
-0.14927717,
-0.01064453,
-0.14034379,
 0.06694018,
  -0.02999038,
 0.16817938,
-0.04957229,
-0.14749432,
 0.15601994,
 0.07690924,
  -0.16369534,
-0.00432937,
-0.16583596,
 0.05628020,
 0.07893061,
 0.06215033,
   0.00966540,
-0.06466669,
-0.05292113,
 0.00745128,
-0.06435303,
-0.03878431,
   0.18098296,
 0.02765147,
-0.15178402,
-0.01193464,
-0.12902023,
-0.07185322,
   0.02851769,
-0.03028224,
 0.13682021,
-0.02034817,
-0.06295431,
 0.07661087,
  -0.01836188,
-0.01295355,
-0.13361558,
-0.09193236,
-0.01355007,
-0.31628788,
   0.05149930,
-0.02949559,
-0.08372138,
-0.16947454,
-0.00356620,
 0.09427597,
  -0.03415644,
 0.13430379,
-0.04941525,
 0.07875714,
-0.34004316,
 0.13424994,
   0.01166607,
 0.11851489,
-0.08213536,
-0.02588569,
-0.11857400,
 0.16327991,
  -0.02546036,
 0.08269288,
-0.01773457,
-0.00696446,
 0.01451666,
-0.02323255,
  -0.11511979,
 0.00120002,
 0.15894948,
 0.01874288,
 0.00125824,
 0.01935635,
   0.11508346,
-0.00163861,
-0.00074028,
 0.09061953,
-0.02018014,
-0.04688403,
 -0.05654376,
-0.12736388,
-0.26533774,
-0.06069718,
-0.01488135,
-0.00348690,
  -0.13231942,
-0.08777137,
 0.14066796,
-0.07781961,
-0.07659297,
-0.00947978,
  -0.06478439,
-0.03423390,
-0.03203052,
-0.01250240,
 0.00888313,
-0.03480630,
  -0.04046118,
-0.02442347,
-0.12616867,
-0.09301263,
-0.10330623,
-0.15135458,
  -0.04253931,
 0.28824788,
-0.06289747,
-0.06611914,
-0.00085079,
-0.11323881,
  -0.01436634,
-0.00153695,
-0.22602755,
-0.12033067,
-0.15423003,
 0.04756052,
   0.02028408,
-0.00379382,
-0.00274701,
-0.07007256,
-0.08045641,
 0.01689378,
  -0.15501389,
-0.11805280,
-0.05101962,
-0.18653050,
-0.16505897,
-0.17415613,
  -0.13564956,
-0.02756583,
-0.10724450,
-0.05230245,
 0.02264109,
-0.07039776,
  -0.02381427,
-0.05885512,
-0.09726089,
 0.02277575,
 0.00951692,
-0.03744169,
  -0.14187866,
-0.07870149,
-0.03868769,
 0.01622321,
-0.08629532,
-0.12098991,
  -0.02011716,
-0.06152208,
-0.02553627,
-0.14906093,
-0.12672900,
-0.11983740,
  -0.00789761,
-0.08165992,
 0.07106439,
-0.04927098,
-0.17278194,
-0.07968854,
  -0.21657509,
 0.03848145,
-0.16559951,
-0.19055927,
-0.06872224,
-0.12479480,
  -0.14338198,
-0.02142698,
-0.22056852,
-0.06322048,
-0.22865258,
 0.01325053,
  -0.01691134,
-0.05499993,
-0.03285356,
 0.08572719,
 0.24785642,
 0.13153090,
  -0.05467278,
-0.00683627,
-0.16774964,
-0.03879259,
-0.17570458,
-0.06435463,
   0.11389356,
-0.07011696,
 0.11789939,
-0.00590575,
-0.07203480,
-0.42269880,
  -0.18167654,
-0.04174508,
-0.05124578,
-0.05042468,
 0.13690430,
 0.22519200,
  -0.05694782,
 0.04152920,
-0.08512541,
 0.08784319,
-0.13629463,
-0.09834806,
 -0.01185783,
-0.06739152,
 0.00228951,
 0.04238017,
-0.05479496,
-0.11959484,
  -0.05187127,
-0.11192655,
-0.02798838,
 0.03935697,
-0.04656406,
-0.04117195,
  -0.05275113,
-0.11523507,
-0.04033060,
-0.03503892,
 0.08592921,
-0.03875972,
   0.01965320,
-0.06630054,
 0.05362489,
 0.00605380,
-0.06892317,
-0.01254193,
  -0.03484140,
 0.02906141,
-0.02173362,
-0.05211712,
-0.07236246,
 0.00397107,
  -0.06864920,
-0.17705463,
-0.03863449,
-0.15472074,
-0.07786927,
-0.04415105,
  -0.03559161,
-0.00093589,
-0.00802535,
-0.22681534,
-0.03574665,
-0.03930885,
  -0.06093932,
-0.04863418,
-0.05910308,
-0.03489154,
 0.00679392,
-0.05991489,
  -0.09991287,
-0.01273249,
-0.06631507,
 0.02851266,
-0.03435035,
-0.03352033,
   0.04853765,
-0.07600749,
 0.07565640,
-0.06595428,
-0.03454980,
-0.07313302,
  -0.11082770,
-0.10384356,
-0.02996848,
 0.02461749,
-0.02553497,
-0.04894788,
  -0.09611241,
-0.05777995,
 0.01464145,
-0.07400544,
-0.09309305,
-0.01373105,
  -0.05184560,
 0.00507329,
-0.05204039,
-0.04980087,
-0.02279341,
-0.02063888,
  -0.05281695,
-0.05263383,
-0.06487472,
 0.04764752,
-0.03892012,
-0.04559920,
  -0.11253294,
 0.04610499,
-0.02634103,
-0.10411844,
 0.12908232,
-0.09598117,
  -0.03053258,
-0.04505154,
 0.00551054,
-0.04095590,
-0.03116185,
-0.04966011,
  -0.04956652,
-0.09389310,
-0.11262491,
-0.03739349,
-0.06455627,
-0.11840951,
  -0.02306704,
-0.08967838,
-0.03590713,
-0.02494992,
-0.01616508,
 0.84449428,
  -0.07458071,
-0.00706852,
-0.09243002,
-0.09360817,
-0.02451983,
 0.10402007,
  -0.02833406,
 0.02184861,
-0.02207479,
-0.08460427,
 0.00552827,
-0.05332065,
  0.14640516,
 0.02374533,
 0.06713694,
-0.06000865,
 0.02193801,
 0.03687060,
   0.15475422,
 0.05780327,
-0.00720358,
 0.03613606,
 0.03026005,
-0.01160366,
   0.03233382,
 0.05486012,
-0.03828460,
 0.00809875,
 0.03680385,
 0.03267401,
   0.09892679,
-0.04719957,
 0.06497210,
-0.05637094,
 0.13901471,
 0.09762287,
   0.07369106,
-0.00153417,
 0.01938190,
 0.12969002,
 0.06722370,
 0.08869281,
   0.05144545,
 0.14580634,
-0.08672661,
 0.02365105,
 0.09240199,
-0.08288859,
   0.03119814,
 0.02993925,
 0.05569182,
 0.17845860,
 0.06800401,
 0.05147661,
   0.07965478,
-0.00798240,
-0.02411051,
 0.04193800,
 0.08511739,
 0.02939458,
   0.02618560,
 0.00942986,
-0.00928076,
-0.04342537,
 0.08628138,
 0.10201054,
   0.05043259,
 0.04225079,
 0.05937091,
 0.01887527,
 0.02004403,
 0.03599192,
   0.05110221,
 0.07099814,
 0.03017222,
 0.05182716,
 0.01884364,
 0.02949193,
   0.07874911,
 0.09943504,
-0.07740804,
-0.01303117,
 0.03954037,
-0.00846736,
   0.01385478,
 0.02807471,
 0.07219885,
 0.03530959,
-0.10856134,
 0.06711040,
   0.06425271,
 0.05243732,
 0.11263156,
-0.00803552,
 0.02177918,
 0.05288250,
   0.05143318,
-0.00928506,
-0.04021996,
 0.06191405,
 0.00526468,
 0.16738492,
   0.01691465,
 0.03822665,
-0.00912524,
 0.09179077,
 0.08815944,
 0.07363822,
   0.10044122,
 0.06467241,
-0.02638444,
 0.03972654,
 0.09003774,
 0.09141187,
  -0.00114413,
 0.03260977,
-0.01603767,
 0.09666874,
 0.04478518,
-0.01077583,
   0.10138721,
 0.06048765,
 0.16866840,
 0.05247401,
 0.09936728,
-0.08921926,
   0.09313718,
-0.00833751,
 0.03706490,
 0.00365621,
 0.01590154,
 0.08733816,
  0.06047179,
-0.07338925,
-0.10957953,
-0.16015507,
 0.01021772,
 0.03655018,
  -0.06503097,
-0.08619814,
-0.03693172,
-0.10420992,
-0.08379014,
 0.03181287,
  -0.10366038,
-0.05309520,
-0.06674490,
-0.00942425,
-0.02765337,
-0.00103337,
  -0.04065656,
-0.17821302,
-0.28728449,
-0.04010576,
-0.13569689,
-0.10063422,
  -0.10639710,
 0.19480523,
-0.00825758,
 0.00897355,
 0.04515287,
-0.08546670,
  -0.02250642,
-0.12470260,
-0.20688434,
-0.12287781,
-0.09111515,
 0.06472649,
  -0.11916645,
-0.04618428,
-0.05735007,
-0.12146733,
-0.01711003,
 0.01475562,
  -0.06576000,
-0.07867748,
-0.15566014,
-0.05775909,
-0.00995681,
 0.00013405,
  -0.10522465,
-0.00566111,
 0.01692642,
-0.18640865,
 0.00539244,
 0.07997160,
  -0.17635886,
 0.01339078,
-0.03245097,
-0.00973045,
-0.01664848,
-0.05852349,
  -0.08099061,
-0.06610416,
-0.01127635,
-0.04749840,
-0.10756224,
-0.12448683,
  -0.00467670,
-0.00848567,
-0.13630581,
-0.05883383,
-0.01235400,
-0.05131833,
   0.02740292,
 0.01743738,
-0.10721265,
 0.04109639,
-0.01175493,
-0.05811179,
   0.03185103,
-0.09985147,
-0.11764679,
 0.00771601,
-0.02781336,
-0.06722689,
  -0.04315161,
-0.00307906,
-0.12511696,
 0.03720697,
-0.04210739,
-0.05726808,
   0.03408817,
 0.04664087,
-0.02084500,
-0.09437639,
 0.11260191,
-0.07442638,
   0.03538945,
 0.01389668,
-0.08650699,
-0.03449153,
-0.01922836,
-0.27937376,
  -0.10746443,
-0.00463296,
 0.01550001,
-0.07488745,
-0.12398805,
-0.02703696,
  -0.00061400,
-0.05358160,
-0.04714248,
-0.00806781,
-0.06313501,
 0.13896546,
  -0.17643431,
-0.04575219,
-0.08579077,
-0.04090742,
-0.15823139,
-0.03413294,
 -0.06002633,
-0.12706533,
-0.04925104,
 0.01192505,
-0.01514740,
-0.04390251,
  -0.09938780,
-0.06556894,
 0.01711557,
 0.02121010,
-0.07908271,
-0.10531897,
  -0.06821359,
-0.10214551,
-0.01786025,
-0.01275407,
 0.00234222,
-0.05829011,
  -0.03811499,
-0.00961889,
 0.07002891,
-0.03463753,
-0.03917301,
-0.00904874,
   0.01953441,
 0.01263437,
-0.00396858,
-0.03304538,
-0.06570431,
 0.05867460,
  -0.06570229,
-0.06781693,
 0.00981003,
-0.03434226,
-0.06603216,
-0.15351322,
  -0.06027391,
 0.00054733,
-0.06900321,
-0.10599048,
-0.07324021,
-0.03797645,
  -0.01029154,
 0.02687350,
 0.04597962,
-0.04628194,
 0.05279870,
-0.04847713,
  -0.01133249,
-0.04573017,
 0.05459363,
 0.06304363,
-0.07924626,
-0.05170669,
  -0.03281118,
 0.03042378,
 0.00070984,
-0.06024480,
-0.02809457,
-0.05270563,
  -0.04991800,
-0.01431256,
 0.02517158,
-0.00927945,
-0.03511414,
-0.02749841,
  -0.06451350,
-0.04832635,
-0.07170909,
-0.10876179,
 0.05780597,
-0.03045709,
   0.01572060,
-0.00766297,
-0.05638897,
 0.03780733,
-0.00010131,
-0.03701515,
  -0.07588056,
-0.08362179,
 0.00098588,
-0.03911865,
-0.04491949,
 0.07658881,
  -0.04361538,
-0.06991928,
-0.11054528,
 0.03368368,
 0.00000939,
-0.03280285,
  -0.05453087,
-0.06882844,
-0.05304677,
-0.02321225,
-0.04380260,
-0.06329067,
  -0.07752861,
-0.07751121,
-0.07050310,
-0.01253036,
-0.03496002,
-0.07015997,
  -0.03616299,
-0.03088028,
 0.05169864,
-0.12971514,
-0.06351865,
 0.69365817,
  -0.00673555,
-0.03018705,
-0.05574569,
 0.02628567,
-0.07196102,
-0.00430753,
  -0.06601353,
-0.04823050,
-0.09899881,
-0.03499729,
-0.01800824,
-0.14826503,
  0.04902282,
 0.05356755,
 0.02994220,
-0.11292759,
-0.08449922,
-0.02633826,
   0.11917303,
 0.07923129,
-0.03349113,
-0.01224334,
-0.01735224,
 0.01341979,
   0.12148607,
-0.01521885,
 0.08830015,
-0.00115238,
 0.05016842,
 0.02972201,
  -0.05036427,
-0.02019443,
 0.00175149,
-0.01116639,
 0.11157206,
 0.04810561,
  -0.05878144,
 0.01212610,
-0.01237511,
-0.03027877,
 0.06669013,
 0.08084377,
   0.03668877,
 0.08575471,
 0.00064231,
-0.00700117,
-0.02565360,
 0.23898949,
   0.04751796,
 0.10567986,
 0.05099754,
 0.07465460,
 0.00913803,
-0.00782970,
   0.06719732,
 0.05365967,
 0.00738152,
 0.07098644,
-0.03614969,
 0.06793570,
   0.00971259,
 0.06030829,
 0.02475627,
-0.08573581,
 0.03332588,
 0.04444748,
  -0.03067789,
 0.04220295,
 0.03775964,
 0.01903762,
 0.04757518,
 0.03852941,
   0.09200564,
 0.11010031,
 0.03491712,
 0.00671522,
 0.03696009,
 0.06794831,
   0.00960488,
 0.03769009,
 0.06245250,
 0.08856855,
 0.00581070,
 0.12818110,
  -0.02084384,
-0.10585260,
 0.10773557,
-0.01882079,
 0.02507797,
 0.07315327,
   0.02395282,
 0.07835905,
 0.02554749,
 0.12595122,
 0.03904247,
 0.00776549,
   0.03301727,
 0.05715074,
-0.01406678,
 0.05608375,
 0.04158038,
 0.04902455,
   0.06021799,
 0.10026065,
-0.02854529,
 0.07087862,
 0.01638360,
 0.02860621,
   0.00901682,
 0.13321027,
 0.07160176,
-0.02865593,
 0.06578786,
 0.05314887,
   0.02745445,
 0.03780695,
-0.00429699,
 0.06249915,
 0.03928618,
-0.77815115,
   0.03263767,
-0.01538958,
 0.06548280,
 0.02044088,
 0.10902806,
-0.02337010,
   0.02508129,
 0.00687710,
 0.01901241,
 0.04988016,
-0.01141057,
 0.13925624,
  0.07322353,
 0.01498974,
 0.01689539,
-0.03255569,
-0.03789076,
 0.05240441,
  -0.04165126,
-0.11743342,
-0.01377230,
-0.03837482,
-0.02743900,
-0.00845017,
  -0.04377005,
-0.01599549,
-0.06584299,
-0.02074729,
 0.01786693,
-0.06564774,
  -0.05471766,
 0.05843531,
-0.07570630,
-0.06263084,
-0.02082773,
-0.10886975,
  -0.00227012,
 0.01119858,
-0.02692170,
-0.10485087,
-0.09435366,
-0.10805745,
   0.01325277,
-0.05369753,
-0.08499131,
-0.07967390,
-0.07887343,
-0.39324048,
  -0.01325848,
-0.04947038,
 0.00531122,
-0.04745110,
-0.01481613,
-0.04571024,
  -0.07047920,
-0.00238148,
 0.00232701,
-0.05080721,
 0.05046560,
-0.05169448,
  -0.00885693,
-0.05686061,
-0.02556673,
-0.01449510,
-0.03300165,
-0.04649024,
  -0.01345009,
 0.02754429,
 0.02981716,
-0.00808270,
 0.04416080,
 0.00636085,
  -0.07923646,
 0.01777408,
 0.04876671,
-0.07108580,
-0.05512032,
-0.10587054,
  -0.03535337,
-0.04888589,
-0.16053677,
-0.13031091,
 0.19722883,
 0.02815640,
  -0.04886098,
-0.01356748,
-0.23613930,
-0.05424381,
 0.03516247,
-0.03218449,
   0.08915344,
-0.06362157,
-0.06194753,
-0.07056651,
-0.10618295,
 0.00753842,
  -0.00514090,
 0.00650959,
 0.01350007,
 0.21947002,
 0.08344858,
-0.00974385,
  -0.00994459,
-0.09941961,
 0.06278928,
-0.02638559,
 0.10760881,
-0.01745443,
   0.00993352,
-0.00640382,
-0.10632221,
 0.02914294,
-0.05747375,
-0.15876274,
   0.01231387,
 0.00857194,
 0.01124652,
 0.02746956,
-0.08193713,
 0.37948552,
  -0.08598458,
 0.00901580,
-0.08378614,
-0.04173059,
-0.08536690,
 0.01075218,
  -0.00442361,
-0.05127990,
-0.00193137,
-0.02610710,
-0.11052976,
-0.02399215,
  0.09254524,
 0.06447592,
 0.00827072,
 0.07268142,
 0.01328725,
-0.05577987,
   0.00860046,
 0.08655231,
-0.02595326,
 0.04566457,
-0.09164501,
 0.02303610,
   0.03456730,
 0.06560256,
 0.02014143,
 0.08685019,
-0.01586688,
 0.07884645,
  -0.04311335,
 0.01695620,
 0.04187180,
-0.00464777,
 0.05071837,
-0.07388218,
   0.05506371,
 0.05398330,
-0.00583204,
 0.05398768,
-0.05192061,
 0.01589445,
  -0.00257772,
-0.00292472,
 0.02630769,
 0.06283209,
 0.01063701,
 0.29809427,
   0.11838535,
-0.04110623,
-0.03562300,
 0.09115231,
-0.00538564,
 0.11414833,
  -0.01067747,
 0.02654738,
 0.01893559,
-0.06276609,
 0.09764048,
 0.00215077,
  -0.01494929,
-0.00471873,
 0.07271247,
-0.02107324,
 0.00601901,
-0.00557443,
  -0.11993750,
 0.03101026,
 0.09064340,
 0.07279631,
 0.05433005,
-0.02315248,
   0.09393946,
 0.03269091,
 0.00678412,
 0.01962278,
 0.02891495,
-0.03462616,
   0.02110395,
-0.06726467,
 0.00496604,
 0.00901961,
 0.16762766,
 0.04657371,
  -0.03856388,
 0.01902519,
-0.01357398,
-0.04681951,
-0.03252470,
 0.04444883,
   0.08739715,
-0.05506211,
 0.00782876,
 0.04934446,
-0.02073978,
-0.01167727,
  -0.04245647,
 0.11316118,
 0.04347732,
 0.00723140,
 0.03616027,
 0.08395150,
   0.06459272,
 0.01196312,
 0.04941820,
-0.06306962,
-0.27099159,
 0.03961481,
  -0.03301357,
 0.14489636,
 0.02845373,
 0.05832232,
 0.08959917,
 0.06855540,
   0.08745942,
 0.01573183,
-0.02023525,
 0.10960657,
 0.06796180,
-0.44170007,
   0.03971239,
 0.09115345,
 0.04598517,
 0.05710748,
 0.08889414,
-0.00137246,
  -0.01089988,
 0.07149311,
 0.05296317,
 0.05183710,
-0.08041634,
 0.02902917,
  0.05298027,
 0.02763120,
 0.04949687,
 0.11822848,
 0.00074439,
 0.10005031,
   0.05535470,
 0.10145325,
 0.11319327,
 0.10303596,
 0.00615543,
 0.04031117,
   0.07460106,
 0.04209710,
 0.01425490,
 0.04499527,
-0.00278719,
 0.06719510,
   0.05250418,
 0.11801247,
 0.05719329,
 0.05729096,
 0.11683047,
-0.01177735,
   0.05078249,
 0.02391263,
-0.00682336,
 0.10321790,
-0.02387445,
-0.01823073,
   0.06465480,
 0.02853041,
 0.03339279,
 0.04023235,
-0.03954693,
-0.12358346,
   0.05345876,
 0.04418857,
 0.10754596,
 0.06734670,
 0.09762357,
 0.03865731,
   0.02002946,
-0.02216913,
 0.05580720,
 0.03036703,
 0.06021917,
 0.12322131,
   0.05563903,
 0.08093876,
 0.10376997,
-0.02742704,
 0.05038491,
-0.03581962,
   0.06605428,
-0.01934796,
-0.02970581,
 0.08140551,
-0.04525208,
 0.12172899,
   0.04720421,
 0.01851803,
 0.01015062,
-0.00888716,
 0.02572936,
 0.05251509,
   0.03363578,
 0.04476780,
 0.08506792,
-0.00941111,
 0.15871225,
 0.07787703,
  -0.02851555,
 0.02489794,
 0.09117993,
 0.02389004,
 0.01774109,
 0.07560468,
   0.00097030,
 0.07710874,
 0.00591703,
 0.01838326,
 0.04026365,
 0.08642270,
   0.11978800,
-0.07404864,
-0.06459519,
-0.02513669,
 0.00743526,
-0.03179745,
   0.01941591,
 0.02869041,
-0.02324925,
 0.03300892,
 0.02088964,
 0.02200296,
   0.09572475,
 0.02189551,
 0.02773577,
-0.01684788,
 0.08415080,
 0.12918943,
  -0.05224212,
 0.00741125,
 0.17331402,
 0.09686334,
-0.02594266,
-0.06408435,
  -0.02324831,
 0.07337512,
 0.09943566,
-0.01744074,
 0.12739457,
-0.07151041,
   0.03693842,
 0.04335200,
 0.10653189,
 0.07985593,
-0.02787912,
 0.08254780,
 -0.07533752,
-0.06667812,
-0.10736740,
-0.03479137,
-0.04684282,
 0.03795798,
  -0.13462828,
-0.01817007,
-0.03036533,
-0.02393658,
-0.04061236,
-0.04993802,
  -0.09708922,
-0.03588888,
-0.17208487,
 0.04236595,
-0.05294934,
-0.11459537,
   0.05799069,
-0.05571103,
 0.00785921,
-0.04516429,
-0.11989999,
-0.01677173,
  -0.05125865,
-0.00352614,
-0.03297223,
-0.06137731,
-0.07778538,
-0.03764527,
  -0.11142590,
-0.13824488,
-0.02772278,
-0.08205829,
 0.01651251,
-0.21167485,
  -0.03238660,
-0.10308598,
-0.05468996,
-0.06465515,
-0.07764535,
-0.04905095,
   0.01195672,
-0.11163079,
-0.00814063,
 0.00824405,
-0.00397576,
-0.04213506,
  -0.10732543,
-0.06985390,
-0.04168574,
 0.03216581,
-0.05643442,
 0.02337626,
   0.03313975,
 0.04123259,
-0.09139262,
-0.12440716,
-0.09801103,
-0.06880963,
  -0.04060557,
-0.07651190,
 0.06665365,
-0.13312294,
 0.01508618,
 0.00719781,
  -0.05229514,
-0.00291365,
-0.03441731,
-0.10491700,
-0.07400520,
-0.07393607,
  -0.00149651,
 0.04862080,
 0.05373732,
-0.09171229,
-0.04602784,
-0.05466643,
  -0.04521133,
-0.05266038,
-0.12990624,
-0.13834672,
-0.06943378,
 0.01803991,
  -0.04559113,
-0.06831700,
-0.03928098,
-0.04378765,
 0.04058257,
-0.12206242,
   0.00138684,
-0.07868680,
-0.05263159,
-0.01064418,
-0.02113181,
-0.03928127,
   0.00609941,
-0.01895692,
-0.06568509,
-0.00675722,
-0.05000512,
-0.04548172,
  -0.06005161,
 0.02108615,
 0.05034149,
-0.01098607,
-0.00007633,
 0.45352829,
  -0.07311217,
-0.11072314,
-0.03792708,
-0.03411596,
-0.08661599,
 0.02812247,
  -0.04722231,
-0.01259058,
-0.04740324,
 0.01467875,
-0.00002741,
-0.13744526,
 -0.05396448,
-0.05335885,
-0.01994332,
-0.03729847,
-0.02730602,
-0.03633755,
  -0.08569973,
-0.02103109,
-0.07570100,
-0.08314278,
-0.05706798,
-0.10543890,
  -0.20787424,
 0.00835425,
-0.04438076,
 0.05740638,
-0.07918613,
 0.02516362,
   0.03421412,
-0.05591724,
 0.07743765,
 0.01467815,
-0.02890055,
-0.04798135,
  -0.06271282,
-0.62794060,
 0.00985901,
-0.00888972,
-0.02588844,
-0.05035203,
   0.06836543,
 0.03546789,
 0.08591558,
-0.15092783,
-0.02782777,
 0.09414461,
  -0.12141243,
 0.00238538,
-0.07018726,
-0.02643662,
-0.05830270,
-0.04532678,
   0.00023244,
-0.02402080,
-0.03726418,
 0.05426275,
-0.14615908,
-0.00334781,
   0.06752233,
-0.02701461,
-0.02937197,
 0.05293792,
-0.00040115,
-0.02795619,
  -0.22219172,
 0.02472386,
-0.04638348,
 0.14349316,
-0.03427554,
 0.06667794,
  -0.04334489,
-0.01730833,
-0.01573194,
-0.02855385,
-0.01367266,
-0.00898088,
   0.05695121,
-0.05332899,
-0.04300745,
-0.01644006,
-0.15963617,
-0.01122741,
  -0.07495027,
 0.04055588,
-0.19296083,
 0.00773203,
-0.07163296,
 0.03665146,
  -0.10274837,
-0.01274361,
 0.02487498,
 0.01381836,
-0.05425736,
-0.02364231,
   0.06465551,
-0.02679711,
-0.04553810,
-0.03407564,
-0.02581478,
-0.04551804,
   0.04509534,
-0.03897103,
-0.04568378,
-0.01060913,
-0.15757915,
 0.02867720,
  -0.00795244,
 0.04293242,
 0.06533125,
-0.11070917,
-0.03721171,
 0.00280906,
  -0.06194049,
 0.09433371,
-0.32137790,
-0.16816574,
 0.01827020,
-0.03853065,
  -0.08965763,
-0.04990654,
 0.11151910,
 0.03701163,
-0.05142199,
 0.11718432,
   0.02166995,
 0.11423852,
-0.03834613,
-0.03735802,
 0.13624999,
-0.04433276,
 -0.02071789,
-0.11791580,
-0.07416140,
-0.04938724,
-0.01190820,
-0.04184314,
  -0.11885935,
-0.15854231,
-0.02097008,
-0.08579747,
-0.01685038,
-0.01481277,
  -0.11777148,
-0.09646782,
-0.00367515,
 0.03054617,
 0.04293061,
-0.03860390,
  -0.07445812,
-0.13229494,
 0.00539096,
-0.03236121,
-0.12480087,
-0.09571517,
  -0.05389364,
-0.06821010,
-0.08333920,
-0.07905496,
-0.03146852,
 0.06441206,
  -0.06573752,
-0.08047307,
 0.00913754,
-0.04243557,
 0.01045726,
 0.06113856,
  -0.11400639,
-0.04730274,
 0.04056139,
-0.13102661,
-0.08987441,
-0.10490160,
  -0.05303649,
 0.02200086,
 0.00960649,
 0.03859420,
-0.04526049,
-0.00760898,
  -0.07336286,
-0.04494561,
-0.03573825,
-0.02533964,
-0.13062806,
-0.04096930,
  -0.14419352,
-0.10274436,
-0.09959402,
-0.05113677,
-0.00034407,
-0.10391649,
  -0.02565961,
-0.02959141,
 0.00275193,
-0.04250705,
-0.01844987,
 0.01235640,
  -0.03624944,
-0.05796199,
-0.01397010,
-0.04981177,
-0.12998186,
 0.01407206,
  -0.04082853,
-0.03329366,
-0.13158055,
-0.05409377,
-0.06839810,
-0.05002653,
  -0.05462091,
 0.04786495,
-0.01855334,
 0.00644811,
-0.07529963,
-0.01728507,
  -0.11299063,
-0.05913961,
-0.05184243,
-0.05278034,
 0.03561620,
-0.18595225,
   0.01142910,
 0.06738406,
 0.00717506,
 0.01218557,
-0.11441256,
-0.04340553,
   0.02355526,
-0.11346485,
-0.02384188,
-0.01711342,
-0.15989479,
-0.09498098,
  -0.14119828,
-0.00618837,
-0.16361430,
-0.04576715,
-0.00053627,
 0.03665002,
  -0.03479228,
-0.06472477,
-0.11459156,
 0.03923133,
-0.12941217,
 0.09480232,
  -0.08179058,
-0.08328903,
-0.06035969,
-0.08643742,
-0.10427365,
-0.02232027,
 -0.01235844,
 0.03869916,
 0.03046398,
 0.03012324,
 0.06989112,
-0.03001662,
   0.11850616,
 0.09711552,
 0.05912497,
-0.05391843,
 0.11482076,
 0.04658504,
   0.01970526,
 0.02393702,
 0.04483557,
 0.06396034,
-0.01517764,
 0.08237245,
   0.04269651,
 0.08341710,
 0.05686098,
-0.01187162,
-0.01998997,
 0.06021732,
   0.08195258,
-0.01153568,
 0.03771175,
 0.04200927,
 0.10155036,
-0.00660777,
  -0.04653031,
 0.14563490,
 0.00388819,
 0.04635135,
 0.01658466,
 0.25305128,
   0.12302626,
 0.00089544,
 0.01285311,
 0.09113582,
 0.05122547,
 0.01369876,
   0.03271993,
-0.01662060,
-0.02465465,
-0.03369588,
 0.05858708,
 0.01385238,
  -0.05412317,
 0.05020336,
 0.13173217,
-0.04493161,
-0.05340002,
 0.10897395,
  -0.06308010,
 0.02325849,
 0.02187122,
-0.02563855,
 0.11749181,
 0.09801024,
   0.00142235,
 0.01657240,
 0.05505742,
 0.09963392,
 0.07913064,
 0.07143685,
  -0.00639908,
 0.00696289,
-0.02355137,
 0.03062777,
-0.10688736,
 0.01892430,
   0.00572212,
-0.06166868,
-0.02586342,
-0.00859712,
 0.13711199,
 0.04093516,
   0.03653819,
-0.04682403,
 0.00038650,
 0.05284332,
 0.01603742,
 0.02424392,
  -0.03117840,
-0.03158273,
 0.09142277,
 0.04597822,
-0.09019460,
 0.01684674,
   0.04957502,
 0.14208278,
 0.03040207,
 0.09928109,
-0.02840732,
 0.02249460,
   0.03070678,
 0.14806651,
-0.02634828,
 0.04819399,
 0.06428302,
 0.11311527,
   0.00668501,
-0.00471247,
 0.05522592,
-0.01907519,
 0.06992536,
-0.14517607,
  -0.00621652,
 0.07051965,
 0.11607779,
 0.06316332,
 0.06551094,
 0.09610184,
   0.00797524,
-0.02872227,
-0.09495642,
 0.06198443,
 0.02690701,
 0.07314938,
 -0.05134103,
-0.04529606,
-0.11191571,
 0.01055641,
 0.03049321,
-0.02084478,
  -0.05554070,
-0.09830393,
-0.01043980,
-0.05613767,
-0.00560506,
-0.05478159,
  -0.09807458,
-0.02212190,
-0.03838206,
-0.04212257,
 0.00186893,
-0.02632619,
  -0.11323357,
-0.01464941,
 0.01689653,
-0.06671748,
-0.01755380,
-0.10252692,
   0.02528813,
 0.05013902,
-0.02308648,
 0.00703807,
-0.01041318,
 0.06293745,
   0.02216852,
-0.04512527,
 0.03671687,
-0.12363515,
 0.05390833,
-0.31282610,
  -0.07998520,
-0.08076400,
-0.04174166,
-0.07201812,
 0.00794963,
-0.05263698,
  -0.07200252,
-0.06765606,
-0.03381092,
-0.02744540,
-0.04772050,
-0.06158844,
  -0.04263939,
-0.06363379,
-0.05179161,
 0.05244912,
-0.06882148,
 0.00411852,
   0.01480583,
-0.08110172,
 0.02064692,
-0.00574764,
-0.08970964,
-0.08255468,
  -0.13461073,
-0.04889197,
-0.05595949,
-0.06837440,
-0.01577209,
-0.07338961,
  -0.07861726,
-0.05497324,
-0.05445433,
-0.05762611,
 0.11119705,
 0.04458939,
   0.02678784,
-0.01335897,
-0.03264357,
-0.07556774,
-0.01504649,
-0.05691944,
  -0.05585883,
-0.09680112,
-0.06671210,
-0.04819219,
 0.03697016,
-0.04676152,
  -0.07112436,
-0.03978109,
 0.01980034,
 0.14589886,
 0.01616484,
-0.03695462,
   0.01494816,
-0.07078273,
-0.03856578,
 0.05035370,
-0.09189037,
-0.00356532,
   0.01393778,
-0.06987129,
-0.05715257,
 0.07676253,
-0.02915488,
-0.13187276,
  -0.00887960,
-0.07482429,
-0.01010679,
 0.10161529,
 0.00906380,
 0.36271876,
  -0.05916615,
-0.03419008,
-0.11013906,
 0.02054443,
-0.12303458,
 0.00485253,
  -0.08775092,
 0.00445301,
 0.10434855,
 0.00659553,
-0.00137181,
-0.09654016,
  0.05366523,
 0.15233310,
 0.06287275,
 0.06926424,
-0.02442232,
 0.01111335,
   0.08135480,
 0.12055171,
-0.02525438,
 0.05381135,
 0.06448387,
-0.08023659,
   0.05581693,
-0.01135047,
 0.06137140,
-0.05281460,
 0.08681911,
-0.03355140,
   0.08948030,
 0.14570881,
-0.03744528,
 0.05007561,
 0.13720748,
 0.07648373,
  -0.00919332,
 0.02973510,
-0.06702648,
 0.12001409,
-0.01347120,
-0.00622294,
   0.06530857,
 0.14624469,
 0.02189433,
 0.06452321,
 0.14768691,
 0.00609913,
   0.05071575,
 0.10044193,
 0.13864775,
 0.12734409,
 0.11439783,
 0.07080181,
   0.08957020,
 0.04170771,
 0.06112526,
 0.01948633,
 0.12214596,
 0.01041843,
   0.09704649,
 0.01403639,
 0.03303113,
-0.07285942,
 0.10863033,
-0.01812202,
   0.16184899,
 0.00343009,
 0.10886337,
 0.05954347,
 0.08491714,
 0.01769893,
   0.14719695,
 0.01158036,
 0.06191008,
 0.07878931,
 0.06693310,
 0.02916211,
   0.05748194,
-0.03357090,
 0.13748734,
 0.03745536,
 0.13616270,
 0.04316192,
   0.00176665,
 0.07348274,
 0.14691597,
 0.06102609,
 0.00471315,
-0.00284396,
   0.09092139,
 0.06159052,
-0.00518192,
 0.00810209,
-0.00640879,
 0.04878909,
   0.05332241,
-0.06448696,
 0.09574360,
-0.01252044,
 0.08691288,
 0.13659956,
   0.00772442,
 0.06459219,
-0.13288788,
 0.04229993,
 0.15307117,
 0.16040114,
   0.02619521,
 0.14111301,
-0.03885219,
-0.08768506,
 0.03587479,
 0.12306152,
   0.05885097,
 0.16302669,
 0.01329502,
 0.05318576,
 0.09286226,
 0.01669122,
   0.00081599,
 0.11374635,
 0.14033826,
 0.05019788,
 0.11847058,
-0.07930972,
   0.16304776,
-0.03096784,
 0.10788355,
 0.04286487,
-0.07103403,
 0.08637667,
 -0.09806556,
-0.02368800,
 0.25007907,
-0.14215033,
 0.04340527,
 0.00633519,
   0.06857630,
-0.08207232,
 0.00344652,
-0.11162136,
 0.06577218,
 0.04144210,
  -0.06929643,
 0.03553305,
-0.06004247,
-0.06202189,
 0.00171676,
 0.09952239,
   0.04316767,
-0.09008852,
 0.02522474,
-0.04841574,
-0.01455238,
-0.02017375,
   0.02115879,
-0.28091589,
-0.00273352,
 0.10094347,
-0.02506653,
-0.01505825,
   0.03093303,
 0.11806373,
-0.13852251,
-0.10255662,
-0.09202772,
 0.10607088,
   0.00514270,
 0.00967675,
-0.00483182,
 0.08560555,
-0.03130769,
-0.02745037,
   0.00607382,
-0.04489238,
 0.00125856,
 0.01301769,
-0.10450082,
 0.02524236,
  -0.04065679,
-0.09459521,
-0.08527520,
-0.04080101,
 0.13049434,
 0.05054627,
  -0.26676244,
 0.07083423,
-0.11288318,
 0.08573954,
 0.02626431,
 0.03011080,
   0.03467625,
 0.11501566,
 0.00541937,
-0.11763612,
-0.11580382,
-0.14889506,
  -0.00070299,
 0.01554039,
-0.04715132,
 0.12471203,
-0.07603946,
 0.06712968,
  -0.05313109,
-0.04747383,
-0.08227447,
-0.05091057,
-0.05563562,
 0.11113364,
  -0.02050713,
 0.03164208,
-0.06328700,
 0.04272721,
-0.08614195,
-0.04194631,
  -0.00400250,
 0.03644415,
-0.07643408,
-0.10193685,
 0.01424001,
 0.08163036,
   0.06421925,
 0.07263266,
 0.04572423,
 0.05052125,
-0.11747231,
 0.00613329,
   0.00986263,
 0.12065677,
 0.10362750,
 0.07179204,
 0.00931767,
-0.02545427,
  -0.06843445,
-0.00641915,
-0.05782048,
-0.15476653,
-0.02456402,
-0.08833385,
   0.16140854,
 0.02680928,
 0.01532503,
 0.08044294,
-0.09804143,
 0.10840660,
   0.08538327,
 0.08788796,
-0.07022658,
 0.00477480,
-0.02543190,
-0.03068759,
  0.14839576,
 0.01061855,
 0.06312783,
 0.09675344,
-0.05725935,
 0.03154293,
   0.06784522,
-0.01034875,
 0.19477399,
-0.01958479,
 0.05572249,
-0.05732696,
   0.10938696,
-0.01232186,
 0.03947287,
-0.01816170,
 0.03164248,
-0.02829273,
   0.01450325,
 0.03311739,
-0.01276225,
 0.16944060,
-0.02966015,
-0.00918478,
   0.00502353,
-0.10581978,
-0.06807458,
 0.03082443,
 0.08013505,
 0.04503085,
  -0.05744529,
 0.03266634,
 0.15609832,
 0.05374542,
 0.12750578,
 0.18168567,
   0.03784031,
 0.08712114,
-0.02966366,
 0.14716387,
 0.02226480,
 0.08121841,
   0.13211502,
 0.02824084,
 0.00422559,
 0.10756648,
 0.05403093,
 0.09927817,
   0.03702235,
 0.02841741,
-0.05796742,
 0.10229978,
-0.00225967,
-0.00984604,
   0.07347359,
 0.03117712,
-0.01413815,
 0.01781088,
 0.05392168,
-0.04896517,
  -0.01937289,
 0.01419867,
-0.02563016,
 0.00386928,
 0.10099411,
-0.00848390,
   0.07833671,
 0.04078969,
 0.02777248,
 0.03513201,
 0.08111846,
 0.09707828,
   0.04793725,
-0.04337543,
 0.04192547,
 0.10301314,
 0.05635497,
 0.01114730,
   0.08095906,
 0.02253822,
 0.13176543,
 0.10658878,
 0.09031025,
 0.00661626,
   0.01859743,
 0.00096802,
 0.03044354,
 0.08547039,
 0.03689945,
 0.03953112,
   0.07034985,
 0.09577385,
-0.02112513,
 0.02509861,
 0.01119742,
-0.02089123,
   0.05377792,
 0.02932542,
 0.09047545,
-0.04655715,
 0.05566450,
 0.14486986,
   0.02113510,
 0.03467675,
 0.06318330,
 0.05947769,
 0.01773497,
-0.45039049,
   0.14538634,
-0.00188470,
 0.03545843,
-0.00754708,
 0.13074245,
-0.13247265,
   0.07919513,
 0.03508798,
 0.11616523,
 0.07064144,
 0.03847872,
 0.09554017,
  0.09037735,
 0.04865020,
 0.08283877,
 0.16620930,
 0.01006030,
-0.01963453,
   0.20114286,
 0.05987949,
 0.18297897,
 0.05670837,
 0.01382216,
 0.03361075,
   0.18132363,
 0.11236244,
 0.00056509,
 0.06927938,
-0.04352357,
 0.05268930,
   0.08349545,
 0.05997906,
 0.35824597,
 0.14025246,
 0.02528878,
 0.10680307,
  -0.01842893,
-0.00094823,
 0.03039398,
 0.10225715,
 0.08965126,
 0.15298292,
   0.05893611,
 0.08013296,
 0.15725259,
 0.07388685,
 0.18630643,
-0.04150833,
   0.12780684,
-0.07391777,
 0.08514543,
 0.22971699,
-0.01568999,
 0.12219632,
   0.05240820,
 0.05987025,
 0.14515920,
 0.10756987,
 0.03529593,
 0.08736519,
   0.00758032,
 0.06315875,
 0.06715743,
 0.25640208,
 0.06867920,
 0.02279364,
   0.21679442,
 0.02146911,
 0.09715553,
 0.05323781,
 0.06115614,
 0.06327366,
   0.03875601,
 0.18098953,
-0.10163317,
 0.09987610,
 0.08905412,
 0.09527446,
   0.03850259,
-0.00068861,
 0.23372670,
 0.01144669,
 0.12597883,
 0.06590079,
  -0.05413780,
 0.01745772,
 0.15328492,
 0.02697086,
 0.04486138,
 0.04464902,
   0.05126575,
-0.03777432,
 0.16111334,
 0.14176479,
 0.12070861,
 0.10613469,
   0.13924830,
 0.07467271,
 0.16335240,
 0.06358393,
 0.01058055,
 0.01086907,
   0.05001384,
 0.00496781,
-0.05135113,
-0.03594301,
 0.00825204,
 0.05834434,
   0.05009237,
 0.05790858,
 0.19483583,
 0.00068522,
 0.17116666,
 0.30181086,
   0.09136461,
-0.00131027,
 0.12551318,
 0.04048580,
-0.03225751,
-0.02415960,
   0.11262342,
 0.00266002,
 0.12541614,
-0.06145751,
 0.04221759,
-0.18858385,
   0.18750498,
-0.00918613,
 0.02658179,
 0.02681544,
 0.25137711,
 0.04101811,
  0.03866380,
-0.04926410,
 0.09785117,
 0.18127598,
-0.02533343,
 0.07152811,
   0.12138417,
 0.06601724,
 0.02410636,
-0.04326019,
-0.03158974,
 0.02849116,
   0.03506415,
-0.04874522,
-0.00328456,
 0.03247426,
 0.05965203,
 0.15136500,
   0.04936491,
-0.06958209,
 0.26903680,
 0.02819572,
-0.01586634,
 0.16592813,
  -0.01259062,
-0.46919441,
-0.07630727,
 0.00055009,
 0.00477378,
 0.03305209,
   0.10997314,
 0.09531181,
 0.23227899,
 0.02710951,
 0.15126848,
 0.17734215,
  -0.01650416,
 0.02794462,
 0.00017794,
 0.11184079,
 0.07057844,
 0.00162706,
   0.07447681,
 0.03058454,
 0.07815513,
 0.04563918,
 0.11002187,
 0.04660355,
   0.05726035,
 0.00350508,
 0.13155153,
 0.22774550,
 0.08750130,
-0.00857200,
  -0.07366838,
 0.04888853,
 0.02657817,
 0.01439999,
-0.02101555,
 0.09280673,
   0.07671389,
 0.20264277,
 0.00783954,
-0.01085953,
 0.05782878,
 0.02468678,
  -0.03048341,
 0.02652393,
 0.10286257,
 0.08909701,
-0.05885768,
 0.11920910,
  -0.01514866,
 0.06969547,
 0.12075034,
-0.07802774,
 0.03223683,
-0.00284507,
  -0.00718729,
 0.04764916,
 0.11848265,
 0.04371052,
 0.12569799,
 0.03630918,
   0.09425356,
-0.06128159,
 0.10969217,
 0.09930602,
-0.02475898,
 0.06468479,
  -0.05308538,
 0.04042108,
 0.07454170,
 0.03205232,
-0.20980822,
 0.02706014,
  -0.00376619,
-0.00370379,
 0.16101417,
-0.00280634,
 0.06162787,
 0.13363895,
   0.05892656,
-0.01590503,
-0.03695279,
 0.07568257,
 0.01928170,
-0.70870876,
  -0.00232693,
 0.05466318,
 0.05671168,
 0.06425088,
 0.06407374,
 0.00406886,
   0.14609458,
 0.07036353,
 0.01456814,
 0.01580767,
 0.26070181,
 0.06334259,
  0.00897729,
-0.03381115,
-0.01729362,
-0.08001181,
 0.01699288,
-0.00116368,
  -0.13212265,
-0.09011786,
-0.07245596,
-0.08087941,
-0.05266456,
 0.00382615,
  -0.02945660,
-0.11563806,
-0.01647774,
-0.01467941,
-0.01239411,
-0.00153766,
  -0.04644316,
-0.03316830,
-0.14292756,
-0.01337229,
-0.02783785,
-0.13878852,
  -0.02685613,
 0.03858760,
-0.09430667,
-0.07296526,
-0.05905149,
 0.01458905,
  -0.00225673,
-0.05057456,
-0.08102701,
-0.10208133,
-0.14579542,
 0.06371594,
  -0.02419075,
-0.03072194,
-0.12092417,
-0.14288051,
-0.10710766,
-0.05886686,
  -0.01242499,
-0.09043776,
-0.09845491,
-0.10804826,
-0.00893844,
-0.06070591,
  -0.09429811,
 0.00246992,
-0.13564396,
-0.15651588,
-0.12165792,
-0.06128505,
  -0.18643129,
-0.04398769,
-0.01436494,
 0.00543853,
-0.02358864,
-0.02644926,
   0.00423265,
-0.12925211,
-0.06269553,
-0.00230314,
-0.05214821,
-0.08819753,
  -0.04948516,
 0.01200573,
-0.08660831,
-0.06321536,
 0.04816870,
 0.06769413,
  -0.01674833,
-0.01221603,
-0.11346387,
-0.01223312,
-0.03559397,
-0.04796667,
  -0.01590193,
 0.03442661,
-0.03655321,
-0.06612398,
-0.12551963,
-0.03156316,
  -0.07982182,
 0.04936101,
-0.03076662,
 0.07420703,
-0.05400397,
-0.06707041,
   0.03890882,
-0.01456370,
 0.03453767,
-0.05441223,
-0.06760621,
-0.03834829,
   0.04161856,
-0.10670017,
-0.08707485,
-0.02084984,
-0.03379686,
-0.10561506,
  -0.02496285,
-0.06647789,
-0.01913230,
-0.12179852,
-0.09581983,
 0.16260767,
  -0.04662008,
 0.01299842,
-0.08616550,
 0.00996546,
-0.16035789,
 0.13078994,
  -0.11810881,
-0.05397538,
-0.17085232,
-0.02673990,
-0.10017333,
-0.07947239,
  0.03498717,
-0.01543705,
-0.11800985,
 0.03761589,
-0.02341244,
-0.03278777,
  -0.08241987,
 0.02020356,
 0.12121227,
 0.13755554,
-0.01008677,
-0.01183627,
  -0.05292217,
-0.05985080,
-0.00458056,
 0.01046495,
-0.04632323,
-0.12644909,
   0.05394115,
 0.03137900,
-0.04986772,
 0.03323975,
-0.02150094,
-0.03519509,
   0.01465229,
 0.14434876,
 0.02475247,
-0.12266479,
 0.03501723,
 0.03558009,
  -0.05343474,
-0.08407555,
 0.05411337,
 0.05333235,
 0.21381105,
-0.02428689,
  -0.11090063,
-0.13714559,
 0.12560482,
-0.08538269,
 0.04096817,
 0.03237206,
   0.07031865,
 0.04875314,
 0.01725341,
 0.03935658,
 0.06664594,
-0.02710941,
   0.10617126,
 0.00490679,
-0.04627250,
 0.01444279,
-0.06900843,
-0.03534473,
   0.25786829,
 0.00432807,
 0.04085117,
 0.01857410,
-0.11763901,
-0.07534891,
   0.04869666,
-0.05063161,
-0.01012658,
 0.16846068,
-0.01177523,
 0.08754040,
  -0.00710257,
-0.02795800,
-0.01927183,
-0.09059591,
 0.11400160,
 0.08758502,
  -0.00073047,
-0.05739384,
 0.18969876,
-0.02438575,
 0.02015153,
-0.03555765,
   0.01119492,
-0.04139198,
-0.02445146,
-0.04235947,
-0.02563014,
-0.01854240,
   0.05058024,
 0.01793431,
-0.02839768,
-0.04679936,
 0.02066853,
-0.04684126,
  -0.02893706,
-0.02874724,
 0.02927780,
 0.01356095,
 0.02518659,
-0.07645779,
   0.00635759,
-0.06843247,
-0.03846090,
 0.06870761,
-0.03519906,
 0.05653825,
   0.06938098,
-0.05588262,
-0.03204214,
 0.12009838,
-0.07507592,
 0.02127619,
  -0.06137503,
 0.02928723,
-0.06721544,
-0.11624113,
 0.07424631,
-0.05266889,
  -0.02765154,
-0.06308731,
 0.04392787,
-0.07328861,
-0.07480542,
 0.07447183,
 -0.02009076,
 0.02739277,
-0.06808761,
-0.11450371,
 0.06022212,
-0.02277499,
  -0.20123243,
-0.14394113,
-0.14157401,
-0.07040898,
-0.03879390,
-0.00461354,
  -0.11420058,
-0.09654518,
-0.07676920,
-0.08211544,
 0.01584533,
-0.06106658,
  -0.01231884,
-0.10962910,
-0.24035317,
-0.25473815,
-0.10638297,
-0.11029413,
   0.00362343,
-0.10936009,
 0.05268008,
-0.13194682,
-0.04374173,
-0.17632738,
  -0.00024637,
-0.11581955,
-0.14951563,
-0.12264804,
-0.20035158,
 0.07168562,
  -0.14397636,
-0.02577000,
-0.00074395,
-0.23990825,
-0.06611664,
 0.06196800,
  -0.12410658,
-0.09342355,
-0.15166296,
-0.17013282,
-0.11178374,
-0.08401904,
   0.00230962,
-0.11074121,
-0.16143110,
-0.15646681,
 0.02516494,
 0.04221130,
  -0.10096690,
-0.01080415,
-0.07823151,
-0.07174952,
-0.01443091,
-0.02547250,
  -0.14414242,
-0.16128641,
 0.01929242,
-0.03388051,
-0.11809292,
-0.19302203,
  -0.03205748,
 0.03851146,
-0.17101733,
-0.17738126,
-0.05442406,
-0.13170117,
  -0.01375930,
-0.01787931,
-0.16145933,
-0.08137886,
-0.08078115,
-0.08443329,
  -0.08218516,
-0.09247468,
-0.10321666,
-0.00314295,
-0.24853610,
-0.03355300,
  -0.07630202,
-0.01183133,
-0.04438667,
-0.08916901,
-0.05094080,
-0.06837097,
  -0.02585369,
-0.04055330,
-0.04157871,
 0.01878701,
-0.08211647,
-0.09268552,
  -0.06140993,
-0.08554511,
-0.15655278,
-0.02237933,
-0.12741290,
-0.34855771,
  -0.08495090,
-0.00490178,
-0.18473339,
-0.03374036,
-0.04503582,
-0.04893346,
  -0.10322185,
-0.06066033,
-0.09679160,
 0.01576241,
-0.14860907,
 0.18995056,
  -0.13536003,
 0.00492379,
-0.05775043,
-0.04220814,
-0.10771383,
-0.08451005,
 -0.02996604,
-0.15422598,
-0.02252465,
 0.06368154,
-0.00192943,
-0.02096283,
  -0.06276490,
-0.06805257,
 0.06259432,
 0.03309320,
-0.01851146,
 0.01603074,
   0.06603283,
-0.05092725,
-0.05316077,
-0.00461892,
-0.00580867,
-0.11018453,
  -0.00194398,
 0.04524265,
-0.02367587,
-0.02131301,
-0.00484485,
-0.11036854,
  -0.00616741,
 0.11353103,
 0.00701027,
-0.02353312,
-0.07904122,
-0.01270570,
  -0.00558768,
-0.14404997,
-0.02829191,
-0.09068761,
-0.00721501,
-0.21759056,
  -0.16211376,
-0.09446671,
 0.05613655,
-0.06745534,
-0.05291032,
 0.01761200,
   0.00992649,
 0.00657765,
 0.03312036,
-0.05476245,
 0.11836828,
-0.07013442,
   0.00547508,
-0.06429444,
-0.06927356,
-0.04782924,
-0.09018577,
-0.01465438,
   0.05242459,
 0.02255378,
-0.03156850,
-0.02402443,
-0.00110881,
-0.02848264,
  -0.03662587,
 0.07359688,
 0.09246651,
 0.03478014,
-0.03226928,
 0.00283768,
  -0.14286587,
-0.09521014,
-0.08293200,
 0.00702344,
-0.01845531,
-0.07083098,
  -0.05963361,
-0.04305774,
-0.05782533,
 0.00820872,
-0.01303835,
-0.08011820,
  -0.04543775,
-0.04449591,
-0.06173804,
-0.03238331,
 0.01292108,
-0.02729159,
   0.08268853,
-0.09820814,
-0.04520266,
-0.08218192,
 0.09007368,
-0.08607233,
  -0.05794185,
-0.12673737,
 0.00163198,
-0.01959594,
 0.03603296,
-0.08993342,
   0.00123321,
-0.11466528,
-0.07232199,
-0.01928455,
 0.02177577,
-0.00431754,
  -0.04346418,
-0.10597638,
 0.03557043,
-0.05002157,
-0.03302150,
 0.12096839,
  -0.01897299,
-0.06186726,
-0.03344590,
-0.05742350,
-0.09039539,
-0.08886283,
  -0.07197331,
 0.06225344,
 0.04834105,
-0.02041965,
-0.00027376,
 0.03992461,
 -0.11860171,
-0.08462073,
-0.07339123,
-0.07639378,
-0.01377913,
-0.02839168,
  -0.13779303,
-0.11901240,
-0.05944261,
-0.04204110,
-0.01278025,
 0.03339440,
  -0.07108562,
-0.02252065,
-0.09045753,
-0.02166565,
-0.03861874,
-0.04088305,
  -0.09479247,
-0.17927749,
-0.05082760,
 0.02133755,
-0.08370238,
-0.00682205,
  -0.02186822,
 0.06637818,
-0.03488204,
 0.00247028,
-0.08128406,
 0.05902824,
   0.06418679,
-0.10327780,
 0.01864493,
-0.10639141,
-0.03839474,
 0.13910754,
  -0.16569901,
 0.00385890,
-0.07459372,
-0.13180530,
-0.13669316,
 0.01681018,
   0.00081344,
-0.02921783,
 0.01734133,
 0.00104312,
-0.05143371,
-0.04749833,
   0.00517895,
-0.08379039,
-0.00869620,
 0.11159683,
 0.01731571,
-0.08011856,
  -0.15697604,
-0.06355064,
-0.07525282,
-0.02870926,
-0.07882124,
-0.04749293,
  -0.07980239,
-0.00197531,
-0.04732291,
-0.15715027,
-0.01014800,
 0.04000094,
  -0.11428686,
-0.07291073,
-0.04558089,
 0.02971861,
-0.06984102,
 0.00025924,
   0.03991200,
 0.00984121,
-0.14738567,
-0.05817528,
-0.03256921,
 0.01059260,
  -0.02701223,
-0.03045230,
-0.01911475,
-0.09908029,
-0.01343480,
-0.07661943,
  -0.10818407,
-0.02998621,
-0.00415261,
-0.02215351,
-0.07499437,
-0.10112870,
  -0.06301349,
-0.04339296,
 0.00167833,
-0.02739762,
-0.04101993,
-0.06363926,
  -0.03633334,
-0.14850748,
-0.13194589,
 0.02900517,
-0.00953245,
-0.12797722,
  -0.05655964,
-0.00872364,
-0.08506564,
-0.10876300,
-0.04337243,
-0.03042529,
  -0.14886934,
-0.04901488,
-0.02824055,
-0.04860979,
-0.11926933,
 0.11487830,
   0.00111846,
-0.10532065,
-0.12275744,
-0.06582861,
-0.03986159,
-0.08418123,
  0.09806536,
 0.08263397,
 0.01692715,
 0.15019463,
 0.04334989,
 0.09014281,
   0.04804087,
 0.09301093,
 0.17053285,
 0.05544082,
 0.03271865,
 0.02906552,
   0.24025226,
 0.08379494,
 0.00549889,
 0.06670012,
-0.01042789,
-0.01161904,
   0.05261922,
 0.08695617,
 0.02001338,
 0.08460394,
-0.05678417,
-0.01276441,
   0.01972879,
 0.03819903,
 0.03185184,
-0.00896383,
 0.07090334,
-0.06802414,
  -0.00860443,
 0.10490398,
 0.16398247,
 0.03230236,
 0.13984938,
-0.11516944,
   0.03091510,
 0.02029630,
 0.07137176,
 0.13827015,
 0.08747065,
 0.04940089,
   0.02222829,
 0.04260087,
-0.00768106,
 0.06678948,
 0.08056674,
 0.05975149,
   0.12807883,
 0.03274314,
-0.02156048,
 0.14935952,
 0.08227082,
-0.04471469,
   0.16564053,
 0.01213091,
 0.05332293,
 0.07262088,
 0.00111923,
 0.02732045,
   0.16270934,
 0.09842590,
 0.00654138,
 0.03045919,
 0.12471063,
 0.15488550,
   0.14152347,
-0.03069793,
 0.08532003,
 0.07920882,
 0.12188047,
 0.06697579,
   0.08716843,
-0.00400897,
 0.17568380,
 0.03282490,
 0.06227306,
 0.00820843,
   0.04554197,
-0.06577672,
 0.08324067,
 0.01079200,
 0.13087966,
 0.04891110,
   0.03381680,
-0.05138321,
 0.16906910,
 0.02578456,
 0.11890624,
 0.01722573,
   0.07058421,
 0.05391917,
 0.04768661,
 0.03939180,
 0.00924918,
 0.08961198,
   0.04266630,
 0.04112599,
-0.01399835,
 0.01677115,
 0.06851789,
 0.16872750,
   0.11007243,
 0.11285903,
-0.03359341,
 0.08776161,
 0.03721759,
-0.01403881,
   0.07155915,
-0.03033345,
 0.08111075,
 0.00771612,
 0.06284004,
-0.10522076,
   0.06170096,
-0.07902600,
 0.07603376,
 0.01998459,
 0.11830641,
 0.06937332,
 -0.00453590,
-0.09318633,
-0.03245277,
-0.06197103,
-0.02099362,
-0.03797076,
  -0.13589935,
-0.07888408,
-0.11683717,
-0.08057416,
 0.01748613,
-0.05209057,
  -0.03354445,
-0.01164502,
-0.08348409,
-0.00361461,
-0.02411170,
-0.07723054,
  -0.01657834,
 0.09986427,
-0.09989016,
-0.06970023,
-0.10374720,
-0.16853417,
  -0.03912028,
 0.40466484,
-0.06435341,
-0.03538315,
 0.03025071,
-0.04951553,
  -0.04453424,
 0.01059797,
-0.05843830,
-0.06460574,
-0.14704025,
-0.33520949,
  -0.04572822,
-0.08027365,
-0.01203368,
-0.16093221,
 0.00410792,
-0.09792957,
  -0.00675039,
-0.00880488,
-0.11641657,
-0.09228586,
-0.01447580,
-0.05831233,
  -0.04653860,
-0.06273428,
-0.12771478,
-0.03826101,
-0.01625888,
 0.01649599,
   0.00054424,
-0.06852791,
-0.00006169,
-0.02596658,
-0.05403836,
-0.05234874,
  -0.07012562,
-0.04952619,
 0.00918677,
-0.05784477,
-0.09671782,
-0.12311207,
  -0.15362500,
 0.03794803,
-0.06640010,
-0.10682216,
 0.14344445,
-0.04970331,
  -0.14260426,
 0.05143912,
-0.00518616,
 0.01652236,
-0.03320067,
 0.00232028,
   0.08524287,
-0.06080934,
-0.12168171,
-0.06663228,
-0.02861303,
 0.04926105,
  -0.00353692,
-0.01093459,
-0.02892233,
 0.17829016,
-0.02977348,
-0.06102093,
  -0.04683835,
-0.03442584,
 0.01024080,
-0.08014777,
 0.14431782,
-0.00875823,
  -0.02727085,
-0.01256159,
-0.11286389,
 0.04526213,
-0.13609886,
-0.16528849,
  -0.03669232,
-0.05199262,
 0.06194492,
-0.04944057,
 0.03643814,
 0.43683964,
  -0.06410382,
-0.12990335,
 0.00614943,
-0.01330043,
-0.02460567,
 0.09671613,
  -0.13049628,
-0.00718572,
 0.02285778,
-0.02067235,
-0.10184877,
-0.02693572,
  0.01440916,
 0.06663721,
 0.06557397,
-0.02626656,
 0.03368996,
 0.10778274,
   0.14380915,
 0.10025842,
-0.01802184,
-0.00220329,
-0.02451084,
 0.07819413,
   0.12873389,
 0.03769286,
 0.03709934,
 0.00342674,
-0.00271752,
 0.09628234,
  -0.01092722,
 0.07025021,
-0.01869389,
 0.00574622,
 0.09736190,
 0.08570348,
   0.05477380,
 0.02370515,
-0.00363978,
 0.06875155,
 0.04519724,
 0.02576297,
   0.11228167,
 0.18300226,
 0.04384355,
 0.02160052,
 0.04341315,
-0.07441723,
   0.11967252,
 0.11973755,
 0.12523822,
 0.07990897,
 0.09336775,
 0.03359842,
   0.00738365,
 0.06700565,
 0.03788971,
-0.00005995,
 0.02595036,
 0.03578486,
   0.06667881,
 0.09763549,
 0.03174692,
-0.01964587,
 0.08909003,
 0.07313027,
   0.05636977,
-0.00278497,
 0.13027965,
 0.07769321,
 0.09473226,
-0.00205265,
   0.05673439,
 0.01040796,
 0.02815784,
 0.03102019,
 0.01505637,
 0.04784748,
   0.13841204,
 0.08411646,
-0.03637545,
 0.02925194,
 0.01653870,
 0.06158911,
   0.07854089,
-0.05032829,
 0.02229238,
 0.06477288,
 0.04272826,
 0.02338013,
  -0.07037891,
 0.05047239,
 0.07596309,
-0.02220429,
 0.07375356,
-0.03452291,
   0.12998444,
 0.01911714,
 0.01339178,
 0.05197340,
 0.04099806,
 0.00421358,
   0.10310708,
-0.02127175,
 0.04974631,
 0.04495463,
-0.03731545,
 0.11171328,
  -0.00275190,
 0.11243611,
 0.13369727,
 0.02089697,
 0.07798517,
 0.15769674,
   0.05112180,
 0.10571696,
 0.00696356,
 0.10484497,
 0.07690111,
-0.06541963,
   0.09729993,
 0.04972565,
 0.11740488,
 0.08357435,
 0.10492617,
-0.11524145,
   0.05097581,
 0.06214271,
 0.07860491,
 0.02937088,
-0.00918435,
 0.08773627,
 -0.03813312,
-0.20257752,
-0.04430757,
-0.03277539,
-0.03133892,
 0.05520960,
  -0.08214793,
-0.15890484,
-0.03378982,
-0.13178161,
 0.01825810,
-0.05425857,
  -0.05796645,
-0.09964897,
-0.04814877,
-0.02364208,
-0.06524916,
 0.02378487,
  -0.00780981,
-0.16110304,
 0.06486525,
-0.06179110,
-0.07851237,
-0.02930114,
  -0.03806946,
-0.04667906,
 0.02777296,
-0.16495597,
-0.07805375,
 0.06579308,
  -0.15928528,
-0.09700887,
 0.04731652,
-0.06947000,
-0.02827321,
 0.11628150,
  -0.23016952,
-0.09122853,
-0.05222248,
-0.10228752,
-0.07789146,
-0.06215097,
  -0.04343302,
 0.01642081,
-0.01905407,
-0.00548012,
-0.15048164,
-0.09157000,
   0.02357260,
-0.08703010,
-0.01953413,
 0.00033783,
-0.08303534,
-0.03124024,
  -0.10894565,
-0.00846067,
-0.05766808,
 0.01098971,
-0.07119824,
-0.00983697,
  -0.03625348,
 0.02283964,
-0.08655386,
-0.05316719,
 0.04872071,
-0.05040655,
  -0.04026590,
-0.03760393,
 0.00242490,
-0.04528375,
-0.11776267,
-0.09303493,
   0.00676660,
 0.02058596,
-0.05251476,
-0.04224886,
 0.00698598,
 0.01290945,
  -0.07177172,
-0.10544994,
-0.01296035,
-0.07077342,
-0.00819916,
-0.01717921,
  -0.06244735,
 0.00638683,
-0.13086896,
-0.00710244,
-0.00026698,
-0.06784763,
   0.01760147,
-0.10079724,
 0.06915988,
-0.01077821,
-0.17533369,
-0.10917616,
  -0.01960700,
-0.11368369,
 0.04091186,
-0.08501168,
-0.03540406,
-0.07219529,
  -0.10393400,
-0.14113659,
-0.07973863,
-0.12019813,
 0.03732923,
 0.02713569,
   0.03440439,
 0.00781940,
-0.13886018,
-0.03184667,
-0.12433050,
 0.05824894,
  -0.04579078,
 0.01538645,
-0.07453200,
-0.16679507,
-0.04850723,
-0.04177639,
 -0.09825104,
-0.05418699,
 0.00551175,
-0.02079002,
 0.04312720,
 0.03538885,
   0.01993444,
-0.12153999,
 0.04295144,
-0.11075725,
-0.04153162,
-0.01293491,
   0.06365735,
-0.03322447,
 0.08101358,
-0.09302908,
 0.02511510,
 0.01599937,
  -0.10447245,
-0.10030656,
 0.10026057,
-0.01635674,
 0.01548198,
-0.07177366,
  -0.04594291,
-0.22274883,
 0.04316095,
-0.02868594,
 0.04010634,
-0.01746915,
  -0.01472455,
 0.00432940,
 0.07198816,
 0.02845817,
 0.02824404,
 0.12011724,
  -0.17275174,
 0.02104924,
-0.14226820,
-0.04069473,
-0.07218512,
-0.01650955,
   0.00990159,
 0.00358666,
 0.06875216,
 0.04160122,
-0.06241643,
-0.04069586,
  -0.08820389,
-0.02820790,
 0.11347622,
 0.13166958,
-0.01724471,
-0.14938374,
  -0.16024047,
-0.03132059,
-0.02634145,
-0.12069786,
 0.03041167,
-0.16335677,
   0.04694818,
 0.01004225,
-0.01340323,
-0.00159439,
-0.00949906,
 0.08177091,
   0.02735447,
-0.10312916,
 0.15299247,
-0.07238207,
-0.13982101,
 0.01872958,
  -0.00331862,
-0.03524558,
-0.08597590,
 0.06779619,
-0.12191526,
-0.03185886,
   0.07204172,
 0.02100769,
 0.05297200,
 0.06835982,
 0.00260809,
 0.02128746,
  -0.05429697,
-0.05359660,
 0.06265432,
-0.03662626,
-0.05070150,
-0.06131579,
  -0.08954079,
-0.00467696,
-0.02186761,
-0.06981897,
-0.03015237,
 0.00942881,
  -0.01568572,
-0.05011344,
 0.07287861,
-0.01846771,
 0.09982193,
 0.03771319,
  -0.12215029,
 0.01671783,
-0.15614381,
-0.19001688,
-0.07056776,
-0.08470760,
   0.13749279,
-0.00788226,
-0.00281850,
-0.06202849,
 0.05187558,
 0.03439686,
  -0.06410252,
-0.07141819,
-0.09047207,
-0.10077234,
 0.02510140,
-0.08554736,
  0.05847991,
-0.11853360,
-0.06560048,
 0.08685084,
-0.03515173,
-0.01767047,
  -0.03267101,
-0.08794100,
-0.01679031,
 0.02492747,
-0.07221602,
 0.02513373,
  -0.09596471,
-0.05331502,
-0.09994817,
-0.03360433,
-0.06799038,
-0.03654655,
  -0.00365001,
-0.05373427,
-0.07658005,
-0.02010995,
-0.04304192,
-0.09900718,
  -0.00585320,
-0.00252987,
-0.02957839,
-0.00805243,
-0.04009188,
-0.05953943,
  -0.01633447,
-0.02920038,
 0.04274408,
-0.11435380,
-0.10048543,
-0.10610750,
  -0.02404850,
-0.05175888,
-0.10190918,
-0.11272907,
 0.00063853,
-0.09286653,
  -0.12361952,
-0.03113223,
-0.00180563,
-0.05815444,
 0.05473262,
-0.09463720,
   0.02842300,
-0.03885831,
-0.03143718,
 0.04034095,
 0.02901188,
 0.00898550,
  -0.10925224,
-0.04874072,
 0.01146804,
-0.02059882,
-0.05003386,
-0.04673808,
  -0.05884854,
 0.00906656,
 0.00881852,
 0.00223412,
 0.00027660,
 0.05217847,
  -0.03254744,
 0.01918087,
-0.05449229,
-0.12396411,
-0.01084656,
-0.07718980,
  -0.11761472,
-0.02803132,
-0.03296044,
-0.10131089,
-0.09111629,
-0.00675518,
  -0.02896040,
-0.02849417,
-0.00718182,
-0.06874271,
-0.01533873,
-0.05977275,
  -0.14651071,
-0.03871899,
-0.02038542,
 0.06105676,
-0.01322465,
-0.08000137,
  -0.12047203,
-0.03479722,
-0.01894525,
-0.06127802,
 0.02059252,
-0.09165943,
  -0.06266075,
-0.05736951,
-0.04394147,
 0.02922239,
-0.07862329,
-0.13404027,
   0.02744452,
 0.00160204,
-0.03437780,
-0.06770864,
 0.02363364,
 0.26835430,
  -0.06291124,
-0.03195698,
-0.01041050,
-0.05505617,
-0.14414297,
 0.07578856,
  -0.09639144,
-0.00584996,
 0.02275356,
-0.05455210,
-0.02154286,
-0.06375887,
  0.15881830,
 0.03461739,
-0.01951251,
 0.25570530,
 0.03958986,
 0.01191426,
   0.19133024,
 0.17343126,
 0.03115726,
 0.03371464,
 0.05198120,
-0.00020971,
   0.26620334,
 0.02491636,
 0.06724699,
 0.03182922,
-0.04214971,
 0.05107477,
   0.00778337,
 0.14247610,
 0.29456267,
 0.17448364,
 0.04084736,
 0.15893036,
  -0.00741065,
 0.05795931,
 0.00421674,
 0.04038311,
 0.08020076,
 0.12031602,
   0.01776558,
 0.05532162,
 0.16815621,
 0.07681451,
 0.13405362,
-0.18429448,
   0.21883583,
-0.03270039,
 0.05828936,
 0.24099846,
 0.07924280,
 0.10325610,
   0.10790546,
 0.11165594,
 0.18776362,
 0.21657482,
 0.16527051,
 0.00914055,
   0.15584272,
 0.02868940,
 0.19500250,
 0.22598095,
 0.08906971,
-0.04516398,
   0.23149826,
 0.01480385,
 0.02715879,
 0.03593603,
 0.08052183,
-0.10911099,
   0.10893804,
 0.23960191,
-0.06033378,
 0.10504951,
 0.04056505,
 0.03662991,
   0.01067320,
-0.10732492,
 0.11766654,
 0.09629140,
 0.06880496,
 0.08008331,
  -0.00592617,
 0.03360134,
 0.21931575,
-0.03423098,
 0.04786782,
 0.10622509,
  -0.06623099,
-0.04183820,
 0.03075947,
 0.09294669,
 0.12098296,
 0.08704624,
   0.04937143,
-0.01710897,
 0.08605899,
 0.06475899,
 0.00918977,
 0.03628775,
  -0.02781553,
 0.06111395,
 0.12407457,
-0.01034640,
 0.02773375,
 0.02966345,
  -0.04001787,
 0.01878827,
 0.02109115,
-0.04310382,
 0.04632377,
 0.26977366,
   0.01630677,
 0.10173426,
-0.02521817,
 0.03132163,
 0.07228661,
 0.00600689,
   0.11553521,
 0.02635219,
 0.01114877,
 0.00533633,
 0.06346731,
-0.14580344,
   0.17530285,
-0.00672908,
 0.15837435,
 0.04346910,
 0.23587267,
 0.08969754,
  0.03279648,
-0.00422871,
-0.00717536,
 0.06736775,
 0.00204280,
 0.05739754,
   0.12824477,
 0.09109728,
-0.00093759,
 0.07704912,
 0.06821017,
 0.08594741,
   0.06103866,
-0.01169145,
 0.06863163,
 0.01471987,
 0.01399521,
 0.06859555,
   0.04718088,
 0.07196580,
-0.05732565,
-0.00945190,
 0.15061592,
-0.00189936,
   0.02186618,
-0.07720327,
 0.10333373,
 0.13233238,
 0.11472669,
-0.00705973,
   0.08396890,
 0.14005542,
 0.03365776,
 0.04835182,
 0.08589996,
 0.23809980,
   0.11325855,
 0.06333474,
 0.06532115,
 0.00990764,
-0.02832691,
 0.00655192,
   0.14976309,
-0.07118675,
-0.02247219,
 0.04049146,
 0.00613604,
-0.04000625,
   0.01094614,
 0.04545767,
 0.05830244,
-0.11181025,
 0.05779596,
 0.05129762,
   0.00587980,
 0.06739188,
-0.02634718,
 0.02564721,
 0.08085648,
 0.09734639,
   0.05526513,
 0.00725352,
 0.00581836,
-0.01755918,
 0.01883341,
 0.01865875,
   0.05206509,
 0.04299214,
-0.01935902,
 0.10511524,
 0.01017662,
 0.06170739,
   0.04494742,
 0.03130174,
-0.00642307,
-0.07463858,
 0.03644121,
 0.04082221,
  -0.03164069,
-0.00221922,
-0.03094858,
 0.01436681,
 0.07643494,
 0.00821512,
   0.06109824,
 0.05827852,
 0.08372466,
 0.09683287,
-0.02555683,
-0.02313291,
   0.05534823,
 0.12382948,
-0.01864949,
 0.08531302,
-0.01158063,
 0.06538472,
   0.07813939,
 0.03667733,
 0.05987052,
 0.07424930,
-0.01070347,
 0.03297445,
  -0.00558121,
 0.02346519,
 0.04235617,
 0.03726049,
-0.01891583,
-0.58568966,
   0.11246616,
 0.04009699,
 0.20970543,
 0.04601942,
 0.06746507,
-0.07490079,
   0.11276143,
 0.02872475,
 0.07589568,
 0.05083735,
 0.09774193,
 0.04253716,
 -0.04484012,
-0.04963677,
-0.05972663,
 0.02125353,
-0.06982128,
-0.00158438,
  -0.03685298,
-0.04573257,
-0.00271420,
 0.03922696,
-0.15584895,
-0.02375044,
  -0.12101046,
 0.00565961,
-0.02370885,
-0.07945504,
-0.00817588,
-0.09322179,
  -0.03625234,
 0.01447257,
 0.01968075,
-0.03950009,
-0.12624460,
-0.07942785,
